4452 10
“ 0.2606881260871887 -0.07780812680721283 0.7487823963165283 0.15452487766742706 -0.31128421425819397 -0.15393611788749695 -0.19536493718624115 0.41853001713752747 0.0011408200953155756 -0.0866275504231453 
人 0.6854164600372314 0.015895158052444458 0.38053902983665466 0.18313252925872803 -0.46523135900497437 0.1941024214029312 -0.2896513342857361 -0.04725846275687218 -0.10201742500066757 -0.030811773613095284 
们 0.379189133644104 0.24318303167819977 0.5077244639396667 0.4106298089027405 -0.19336728751659393 0.22245019674301147 -0.28218451142311096 -0.003849371336400509 -0.45100879669189453 0.027383556589484215 
常 0.6026721000671387 0.4518413245677948 0.5104500651359558 0.030487975105643272 -0.19702844321727753 0.22676898539066315 -0.23792600631713867 0.01194753684103489 0.11108923703432083 -0.1086285412311554 
说 0.4421994984149933 0.17766208946704865 0.5048509836196899 0.5222635269165039 -0.09641551226377487 -0.052518364042043686 -0.1578950732946396 0.29900315403938293 -0.14331567287445068 0.31358394026756287 
生 0.23785871267318726 -0.10520485788583755 0.36297717690467834 0.0629713237285614 -0.7260920405387878 0.05546526610851288 -0.20221810042858124 -0.34580016136169434 0.14346952736377716 -0.2920580208301544 
活 0.14618918299674988 0.14629101753234863 0.43033793568611145 0.10898233205080032 -0.5023543834686279 0.0604078471660614 -0.2169763147830963 -0.3357217609882355 0.18531572818756104 -0.5567953586578369 
是 0.2867886424064636 0.19012156128883362 0.5497950315475464 0.24347102642059326 -0.39909014105796814 -0.11008952558040619 -0.404110848903656 0.13278916478157043 -0.404446542263031 0.06438326835632324 
一 0.25358304381370544 0.04386163130402565 0.5912557244300842 -0.04494261369109154 -0.29521283507347107 -0.34999868273735046 -0.12727275490760803 0.3316386938095093 -0.4372371435165405 -0.23486173152923584 
部 0.5632629990577698 0.055203601717948914 0.29414889216423035 -0.4897816479206085 -0.27296000719070435 0.1846027821302414 -0.33747076988220215 0.33183783292770386 0.14361026883125305 -0.008085056208074093 
教 0.3073812425136566 -0.21572384238243103 0.6318433284759521 -0.23842357099056244 -0.46156442165374756 0.05593082308769226 -0.24957655370235443 -0.10205478221178055 0.17967602610588074 0.2859216332435608 
科 0.33127501606941223 -0.04553663730621338 0.4424089193344116 -0.13131269812583923 -0.6414459943771362 -0.1472470462322235 -0.11765982955694199 -0.22792017459869385 0.28412818908691406 0.30912742018699646 
书 0.7253949642181396 -0.17571882903575897 0.5153337121009827 0.14277668297290802 -0.13283826410770416 -0.21491602063179016 0.002843596041202545 0.10851474851369858 0.2839510440826416 0.02691347897052765 
， 0.36133095622062683 0.16525596380233765 0.4029633402824402 0.25323286652565 -0.5641792416572571 -0.07784469425678253 -0.42866602540016174 0.0403023287653923 -0.3019654452800751 -0.1212606132030487 
而 -0.0006887497729621828 0.39401352405548096 0.1048913225531578 0.4409642815589905 -0.5608943104743958 -0.07227187603712082 -0.5111252665519714 0.08239106088876724 -0.21169954538345337 -0.08137234300374985 
血 -0.1307658702135086 -0.18634995818138123 0.18430155515670776 0.37239745259284973 -0.38169896602630615 -0.05158050358295441 -0.5488146543502808 -0.1346462517976761 0.4165472686290741 -0.366515576839447 
与 0.35267770290374756 0.45407190918922424 0.4023887813091278 -0.1304568499326706 -0.606693685054779 0.07482302933931351 -0.17790767550468445 -0.013048517517745495 0.2148478478193283 0.19709064066410065 
火 -0.22679944336414337 0.16566585004329681 0.06002331152558327 0.10874961316585541 -0.38573750853538513 -0.10433980077505112 -0.035236064344644547 0.6409527063369751 0.2973531484603882 -0.4955063462257385 
的 0.23111550509929657 0.055280402302742004 0.6092075109481812 0.0396442785859108 -0.6377828121185303 -0.03489072993397713 -0.32561564445495605 -0.19258759915828705 0.03321265056729317 -0.1364605575799942 
战 -0.22788390517234802 0.4245000183582306 0.38788628578186035 -0.20039528608322144 -0.602497398853302 -0.010366211645305157 -0.08774468302726746 0.3858776390552521 -0.05911317095160484 0.23248426616191864 
争 -0.2954600155353546 0.49786177277565 0.26568877696990967 -0.1721838116645813 -0.6536600589752197 -0.02140587754547596 -0.2870136499404907 0.159735307097435 -0.13220855593681335 0.10722968727350235 
更 -0.01988689973950386 0.30126282572746277 0.3208222985267639 0.26557278633117676 -0.6631404757499695 -0.03468436375260353 -0.4433385133743286 -0.2483331263065338 -0.1795799732208252 -0.06295797228813171 
不 0.11376911401748657 0.2876969277858734 0.22135818004608154 0.4250227212905884 -0.32031816244125366 -0.07000773400068283 -0.703245997428894 0.029816053807735443 -0.2519066631793976 -0.0907604992389679 
可 0.18535353243350983 0.21903575956821442 0.013343578204512596 0.42164522409439087 -0.4309288263320923 -0.18787747621536255 -0.6464923024177551 0.0705958753824234 -0.3003818988800049 -0.07444345951080322 
多 0.39114558696746826 -0.16485942900180817 -0.13943123817443848 0.2509342432022095 -0.8314771056175232 -0.057700879871845245 -0.03110431134700775 0.12303045392036438 -0.1510525643825531 -0.06175047159194946 
得 0.01253386028110981 0.24492526054382324 0.2054002732038498 0.3918091356754303 -0.5307765007019043 -0.3429410755634308 -0.4679069519042969 0.056386835873126984 -0.3348464071750641 0.10285972058773041 
她 0.3530104160308838 0.08697942644357681 0.3817893862724304 0.5517933368682861 -0.21746033430099487 0.15586993098258972 -0.28840479254722595 0.2256094217300415 -0.4600751996040344 -0.015766901895403862 
确 0.24301977455615997 0.3935079276561737 0.4315558671951294 -0.10072395950555801 -0.31811779737472534 -0.3308958113193512 -0.5174745917320251 0.020275015383958817 -0.14584824442863464 0.29925471544265747 
实 0.15225565433502197 0.4135899543762207 0.5377963781356812 -0.20063364505767822 -0.398587167263031 -0.2993467450141907 -0.44126859307289124 -0.08823521435260773 -0.1572297364473343 0.024039460346102715 
名 0.6204010844230652 -0.3723439574241638 0.3341737985610962 0.010138068348169327 -0.47613000869750977 -0.2738765776157379 0.02975354716181755 0.17571806907653809 -0.17078009247779846 0.045292697846889496 
副 0.7540706992149353 -0.07887352257966995 0.34629470109939575 -0.16710227727890015 -0.179460808634758 0.09609947353601456 -0.15870784223079681 0.12230099737644196 0.3833860158920288 0.22077418863773346 
其 0.5119808316230774 0.2549723982810974 0.21277673542499542 0.13319824635982513 -0.5374169945716858 -0.12296227365732193 -0.5050999522209167 0.05774000287055969 -0.14916777610778809 0.15874913334846497 
‘ 0.28358396887779236 -0.21510016918182373 0.7593039870262146 0.18573319911956787 0.11052641272544861 0.07426223903894424 -0.257090300321579 0.37060776352882385 0.07453803718090057 -0.1885213702917099 
我 0.4293006360530853 0.3528413474559784 0.5105247497558594 0.34749695658683777 -0.23716160655021667 0.18463923037052155 -0.1778169721364975 0.06097382679581642 -0.4287857115268707 0.016826879233121872 
大 0.3367588520050049 0.18116268515586853 0.45470982789993286 -0.112298883497715 -0.7675612568855286 0.06538841128349304 -0.044350847601890564 0.030525224283337593 0.14020001888275146 -0.13572265207767487 
学 0.355486124753952 -0.19564402103424072 0.6403588056564331 -0.04687170684337616 -0.5652439594268799 -0.05086279287934303 -0.06644485890865326 -0.25471827387809753 0.06474106013774872 0.1658950299024582 
’ 0.17303289473056793 -0.28049618005752563 0.742720365524292 0.17125611007213593 0.07801289856433868 0.0068729715421795845 -0.33425483107566833 0.26894548535346985 0.1205279678106308 -0.3251170217990875 
。 0.06752166152000427 0.09891845285892487 0.33999767899513245 0.2365647703409195 -0.6414949297904968 -0.43837910890579224 -0.3574749231338501 -0.1446942239999771 0.15357278287410736 -0.19517479836940765 
心 0.26589760184288025 0.18259891867637634 0.6675800085067749 0.24676835536956787 -0.34594544768333435 0.18818888068199158 -0.433952659368515 -0.11159935593605042 0.1533161997795105 -0.10014922171831131 
静 -0.3467278778553009 -0.036617688834667206 0.39471936225891113 0.28032296895980835 -0.34263548254966736 0.2978763282299042 -0.1302807480096817 0.6363667845726013 0.12581057846546173 -0.012692629359662533 
渐 -0.34216150641441345 0.45616844296455383 -0.024374699220061302 0.18231123685836792 -0.677437961101532 -0.03130786493420601 -0.04944518208503723 0.11320677399635315 -0.15757860243320465 -0.37551361322402954 
知 0.33330217003822327 0.10726290196180344 0.4577394425868988 0.41410502791404724 -0.4374755322933197 -0.09672016650438309 -0.3234409987926483 -0.43589815497398376 -0.0009830368217080832 0.03215864673256874 
春 0.20867063105106354 -0.11738251149654388 0.14987947046756744 0.34504926204681396 -0.6187365055084229 0.2593576908111572 0.3696129322052002 0.4619874060153961 0.02998354099690914 -0.010426761582493782 
似 -0.20882031321525574 0.08940805494785309 0.41808730363845825 0.5887433886528015 -0.17986945807933807 -0.058374062180519104 -0.23266787827014923 0.385956346988678 -0.16102276742458344 -0.40273940563201904 
海 0.234125554561615 0.1684301495552063 0.05409202352166176 -0.12211236357688904 -0.562667965888977 0.27011728286743164 0.1802482157945633 0.5607245564460754 0.3084403872489929 -0.25958359241485596 
花 -0.05488467961549759 -0.4770779609680176 0.3653589189052582 0.2980085015296936 -0.36202871799468994 -0.041031353175640106 0.08505097776651382 0.5630074739456177 0.07264319062232971 -0.2912929058074951 
深 -0.12297777831554413 0.2798357903957367 0.5399243831634521 0.0007020693738013506 -0.7186041474342346 0.22912700474262238 -0.1475650668144226 -0.1016993299126625 -0.11503052711486816 -0.02842944674193859 
每 0.5071417093276978 -0.05267452448606491 0.03371340408921242 0.04913121089339256 -0.45035117864608765 -0.20222198963165283 -0.09918113797903061 0.3929316997528076 -0.5412499308586121 -0.18864920735359192 
觉 0.01533978246152401 0.14164051413536072 0.39550185203552246 0.5415545701980591 -0.2401961237192154 0.312025249004364 -0.5981666445732117 -0.06470169126987457 -0.10475572943687439 0.04452323541045189 
影 0.0848870575428009 0.37254053354263306 0.10054868459701538 0.4501153826713562 -0.42272645235061646 -0.24493195116519928 0.035787101835012436 -0.12984062731266022 0.36317479610443115 -0.5025627017021179 
香 0.2963242530822754 0.5321391224861145 0.04268433153629303 0.2675035297870636 -0.4654698073863983 0.40299758315086365 0.1477319896221161 0.33788803219795227 0.19978001713752747 0.025797182694077492 
吃 0.16820001602172852 -0.26474234461784363 0.2624233663082123 0.37112411856651306 -0.009232091717422009 0.22543711960315704 -0.46309250593185425 0.39360785484313965 -0.27413809299468994 -0.44674426317214966 
屎 -0.06974422186613083 -0.12657488882541656 0.1938665509223938 0.2673170864582062 -0.333448588848114 0.15221752226352692 -0.4921383857727051 0.6258665919303894 0.2809823453426361 -0.15117396414279938 
东 0.3887439966201782 0.26423728466033936 0.2135513871908188 -0.2207939177751541 -0.4416147470474243 0.34569859504699707 0.19472800195217133 0.48849254846572876 0.2999732196331024 -0.06036202237010002 
西 0.339878112077713 0.13362783193588257 0.17591334879398346 -0.2121216356754303 -0.403987318277359 0.3598290681838989 0.02855578251183033 0.6333664059638977 0.2770756483078003 0.13879218697547913 
连 0.3490554988384247 0.2265896052122116 -0.08127585798501968 0.09932363033294678 -0.632125973701477 0.09898301213979721 0.051270633935928345 0.5266441106796265 -0.20235982537269592 -0.28290194272994995 
捆 0.013868053443729877 -0.13891781866550446 0.034655895084142685 -0.18929100036621094 -0.21801750361919403 -0.41469892859458923 -0.2454126626253128 0.6979400515556335 -0.033988647162914276 -0.4188886284828186 
麦 -0.06189335882663727 -0.2780720889568329 0.03803666681051254 -0.1547529399394989 -0.44538944959640503 0.11391323804855347 -0.24450065195560455 0.7524300813674927 0.0837346687912941 0.2217182219028473 
也 0.2731645107269287 0.3704594373703003 0.279770165681839 0.4048510789871216 -0.40877649188041687 -0.03430812805891037 -0.5113239288330078 0.08331220597028732 -0.3279408812522888 -0.04185275360941887 
铡 -0.24195615947246552 -0.0779482051730156 0.2628871202468872 0.16577748954296112 -0.07393048703670502 -0.011344334110617638 -0.4404873251914978 0.6932785511016846 -0.17712022364139557 -0.356594055891037 
动 0.17264780402183533 0.37031325697898865 0.39232954382896423 -0.08199270069599152 -0.49725762009620667 -0.08302541077136993 -0.2258705347776413 -0.12792743742465973 0.23272445797920227 -0.5447142720222473 
呀 -0.12274949252605438 -0.3983706831932068 0.40544936060905457 0.5378682613372803 0.004797534551471472 -0.01941920444369316 -0.30735620856285095 0.33111438155174255 -0.08130010217428207 -0.401780366897583 
？ -0.04760904237627983 -0.2216346710920334 0.5424410104751587 0.38001444935798645 0.017528483644127846 -0.20096996426582336 -0.5126401782035828 0.018593067303299904 -0.12310800701379776 -0.4369904398918152 
他 0.4395923316478729 0.2701541781425476 0.40899646282196045 0.4735727310180664 -0.19777345657348633 0.10733288526535034 -0.30881863832473755 0.1016295850276947 -0.4057866036891937 0.14570915699005127 
严 -0.1286672204732895 0.42082300782203674 0.14876361191272736 -0.026276493445038795 -0.11301174014806747 -0.22367219626903534 -0.7933842539787292 0.1759338676929474 0.2398492842912674 -0.052837640047073364 
格 0.12615153193473816 0.20191317796707153 -0.06722242385149002 -0.009978657588362694 -0.37728431820869446 -0.3698599934577942 -0.527886152267456 0.30101022124290466 0.4784054756164551 0.24782191216945648 
要 0.2729380428791046 0.3105178475379944 0.46620503067970276 -0.04486598074436188 -0.3154943883419037 -0.16396646201610565 -0.6279935240745544 -0.13624094426631927 -0.26504507660865784 0.01073864009231329 
求 0.36288273334503174 0.35351139307022095 0.3598082363605499 0.053968239575624466 -0.268511563539505 -0.10861803591251373 -0.6946682333946228 -0.16947749257087708 -0.12164069712162018 0.031495679169893265 
自 0.40594482421875 0.21806110441684723 0.231743723154068 0.23605822026729584 -0.5459131002426147 0.41557687520980835 -0.43435248732566833 -0.11736568063497543 -0.07118130475282669 -0.0007884664228186011 
己 0.2115626186132431 0.14302343130111694 0.3483660817146301 0.37427544593811035 -0.342738538980484 0.34922468662261963 -0.6070324778556824 -0.21798311173915863 -0.1046777218580246 -0.08339384198188782 
从 0.5621328353881836 0.2605879604816437 0.15921126306056976 0.19940492510795593 -0.5654498338699341 -0.11654355376958847 -0.21136540174484253 0.27621355652809143 -0.3109569847583771 -0.003264832543209195 
个 0.4103485345840454 -0.021465061232447624 0.3561929762363434 -0.12536530196666718 -0.4545905292034149 -0.2795298993587494 -0.07438352704048157 0.29490339756011963 -0.5059409141540527 -0.2351529449224472 
举 0.4956343173980713 0.3981487452983856 0.4402594268321991 -0.16703645884990692 -0.2213735431432724 -0.3918978273868561 0.13226239383220673 0.38412976264953613 0.038377583026885986 0.0705883577466011 
出 0.39361312985420227 0.31158313155174255 0.40328097343444824 0.24195241928100586 -0.5316370725631714 -0.4469824433326721 -0.05498603358864784 -0.0963701382279396 -0.07491138577461243 -0.16264820098876953 
身 0.16709581017494202 0.09522809833288193 0.3767033517360687 0.23616503179073334 -0.625415563583374 0.2639602720737457 -0.5019367933273315 -0.044240668416023254 -0.007713888771831989 -0.22484305500984192 
进 0.21144883334636688 0.5363135933876038 0.3499327600002289 -0.38348573446273804 -0.4565363824367523 -0.31540995836257935 -0.15922898054122925 0.11848727613687515 -0.11093465238809586 -0.19630184769630432 
士 0.45967012643814087 -0.10021373629570007 0.5351452231407166 0.16912908852100372 -0.49329277873039246 0.13846898078918457 0.015249730087816715 0.08262971043586731 0.16213685274124146 0.4096529185771942 
成 0.24976077675819397 0.0932656079530716 0.28413769602775574 -0.07460997253656387 -0.743780791759491 -0.43428102135658264 -0.2603827714920044 -0.03014257177710533 -0.17901892960071564 0.007400528062134981 
为 0.4969996213912964 0.151996448636055 0.38500702381134033 0.08848050236701965 -0.6171419024467468 -0.1553773432970047 -0.3438933491706848 -0.041624147444963455 -0.18535657227039337 0.12029393017292023 
伟 0.04971595108509064 -0.02379539981484413 0.7533367872238159 0.035606950521469116 -0.5213484764099121 0.02364552766084671 0.2048988938331604 -0.007085910998284817 0.1939641237258911 0.2759685218334198 
民 0.6319875717163086 0.200503870844841 0.3514690697193146 0.01026950590312481 -0.437364399433136 0.43909329175949097 -0.12318100780248642 -0.1287941187620163 0.14247560501098633 0.024548612534999847 
主 0.4662347435951233 0.28977203369140625 0.6349209547042847 -0.11201604455709457 -0.30065691471099854 0.09747491776943207 -0.21494299173355103 -0.12536044418811798 0.27577629685401917 0.21241667866706848 
义 0.24216359853744507 0.3240653872489929 0.6951851844787598 0.0056255836971104145 -0.3179323971271515 0.055843450129032135 -0.18441163003444672 -0.22200040519237518 0.36405420303344727 0.18165232241153717 
者 0.7141461968421936 0.07762935757637024 0.23645050823688507 0.5648928880691528 -0.1637813001871109 -0.1298382580280304 -0.0466102696955204 -0.08259448409080505 0.17640531063079834 -0.1586208939552307 
位 0.6048802137374878 -0.1872938722372055 0.4266963005065918 -0.19961559772491455 -0.3293105363845825 -0.17888474464416504 -0.21408027410507202 0.2597334682941437 -0.32822272181510925 -0.12513047456741333 
杰 0.3875909149646759 -0.07637416571378708 0.3780747056007385 0.3262002468109131 -0.3531704246997833 -0.04966369643807411 -0.043035708367824554 0.2185451090335846 0.19888907670974731 0.6150012612342834 
党 0.5554446578025818 0.12949351966381073 0.5457897782325745 -0.3856699764728546 -0.3604828417301178 0.1524105817079544 -0.2026408165693283 0.02696274407207966 -0.0977056473493576 0.1535298377275467 
外 0.6916035413742065 0.43137043714523315 0.09007217735052109 -0.032856304198503494 -0.37860333919525146 0.004999141674488783 -0.21635939180850983 0.21409879624843597 0.2597949802875519 -0.15133726596832275 
共 0.6794069409370422 0.2553330659866333 0.24759703874588013 -0.17730890214443207 -0.5839989185333252 0.06124645844101906 -0.12741771340370178 -0.05667388439178467 -0.046105675399303436 0.1187000647187233 
产 0.34661129117012024 -0.07518156617879868 0.061666011810302734 -0.18513132631778717 -0.6797968745231628 -0.17388556897640228 -0.3345962166786194 -0.31535229086875916 0.12883774936199188 -0.340251624584198 
献 0.1665792316198349 -0.07193773239850998 0.30461233854293823 0.5170961022377014 -0.4890235960483551 -0.21997176110744476 -0.21955260634422302 -0.4799012839794159 0.10237500816583633 -0.17429418861865997 
于 0.5253340601921082 0.43067747354507446 0.01217245776206255 0.1406366378068924 -0.6197506189346313 0.00659877760335803 -0.2992713749408722 0.1458267718553543 -0.14720584452152252 0.044513292610645294 
崇 0.05063052475452423 -0.2146981656551361 0.5491285920143127 0.3268897235393524 -0.5150715708732605 0.3545224368572235 -0.2209327667951584 -0.13797326385974884 0.15280340611934662 0.24649637937545776 
高 0.1907336711883545 -0.1461699903011322 0.15408730506896973 -0.10106199979782104 -0.8530855178833008 -0.17870169878005981 -0.3155248761177063 -0.20917387306690216 0.016689807176589966 0.07086027413606644 
事 0.5034123659133911 0.2280673235654831 0.6678423881530762 -0.031230850145220757 -0.14567989110946655 -0.1776122897863388 -0.37376269698143005 -0.019949808716773987 0.12694744765758514 -0.19644741714000702 
业 0.5297805070877075 0.022493235766887665 0.19508053362369537 -0.2614747881889343 -0.46531960368156433 -0.01772439479827881 -0.2351803183555603 -0.24292419850826263 -0.07342333346605301 -0.5252160429954529 
征 0.3603830337524414 0.1973380446434021 0.2244250476360321 -0.08451052755117416 -0.6017901301383972 -0.3827710449695587 -0.3533157408237457 0.18341906368732452 0.31544268131256104 -0.08384229242801666 
未 0.23020502924919128 0.4804551303386688 0.11283491551876068 0.41970062255859375 -0.4826699197292328 -0.174939826130867 -0.3466229736804962 0.1453939527273178 -0.3421041965484619 -0.07342934608459473 
用 0.37111878395080566 0.10454054921865463 0.1679086834192276 0.05006745457649231 -0.47946012020111084 -0.32021084427833557 -0.6044085025787354 -0.10271599143743515 0.18958698213100433 -0.2764446437358856 
耕 0.057544950395822525 -0.11157495528459549 -0.16710329055786133 -0.13260550796985626 -0.5687117576599121 0.31343933939933777 -0.6117408871650696 0.2867676913738251 -0.12622597813606262 -0.21132640540599823 
地 0.12630856037139893 0.3405972421169281 0.270681768655777 -0.18730466067790985 -0.5793266892433167 0.37064874172210693 -0.3975687325000763 0.3350118100643158 0.032558489590883255 -0.12383189052343369 
和 0.28351420164108276 0.2187969833612442 0.38228103518486023 -0.25540459156036377 -0.6354377865791321 0.06483538448810577 -0.3253014385700226 -0.17344407737255096 0.3405081033706665 0.023298470303416252 
有 0.4293748140335083 0.17538215219974518 0.2222956418991089 0.1518293172121048 -0.5169450044631958 -0.11468842625617981 -0.553733766078949 0.013081368990242481 -0.27135151624679565 -0.2271595597267151 
收 0.45675018429756165 0.12041762471199036 -0.2932053506374359 -0.08730066567659378 -0.49347761273384094 -0.17912422120571136 -0.5224987268447876 0.14376214146614075 -0.07450245320796967 -0.32933157682418823 
益 0.256918340921402 0.44375959038734436 -0.09778889268636703 0.2956870198249817 -0.5736328363418579 -0.050393443554639816 -0.39681681990623474 -0.32473570108413696 0.20601263642311096 -0.05589902028441429 
土 -0.03094135783612728 -0.06373058259487152 0.07511045038700104 -0.23845846951007843 -0.6243007183074951 0.24848176538944244 -0.44255954027175903 0.47846633195877075 0.13879264891147614 -0.19217203557491302 
准 0.2339659035205841 0.10310008376836777 0.27282556891441345 -0.29889023303985596 -0.29831141233444214 -0.6527504324913025 -0.4661153256893158 0.1787724792957306 -0.06346219033002853 0.05037672817707062 
荒 -0.20512354373931885 -0.05163421481847763 0.06596437841653824 -0.2172233760356903 -0.5953644514083862 0.3257419168949127 -0.06094256788492203 0.4213266372680664 0.06960303336381912 -0.5070301294326782 
芜 -0.07827463001012802 -0.13031938672065735 0.15027989447116852 -0.0480855330824852 -0.4567011892795563 0.318199098110199 0.010860788635909557 0.6926351189613342 0.3602272570133209 -0.18039432168006897 
这 0.2860262989997864 0.20777447521686554 0.5567681789398193 0.2234235256910324 -0.12809275090694427 -0.38160568475723267 -0.26182281970977783 0.2592787742614746 -0.4509812891483307 -0.11797583848237991 
首 0.547857403755188 0.3866281807422638 0.40285977721214294 -0.05779896304011345 -0.2860090732574463 -0.2241244614124298 0.044642768800258636 0.41978490352630615 -0.04103974997997284 0.2698236107826233 
先 0.52528315782547 0.1165396124124527 0.5094074606895447 -0.045535605400800705 -0.5598236322402954 -0.03445987030863762 -0.17679443955421448 0.2006005048751831 -0.16216826438903809 0.19115737080574036 
族 0.36536797881126404 0.09840238839387894 0.40151745080947876 0.02148650400340557 -0.533076822757721 0.5435678958892822 -0.13306492567062378 -0.10703238844871521 0.271602600812912 0.11215244233608246 
问 0.18007038533687592 0.625999927520752 0.5001242756843567 0.2546401917934418 -0.0665472149848938 -0.41195082664489746 -0.2689265310764313 0.031553931534290314 0.10531502962112427 -0.0468222014605999 
题 0.08387836068868637 0.522361695766449 0.5584308505058289 0.18478111922740936 -0.07835863530635834 -0.5044493675231934 -0.31579333543777466 -0.022381050512194633 0.09025102853775024 -0.07164311408996582 
感 0.04174390435218811 0.22314323484897614 0.354922354221344 0.6641384363174438 -0.29105204343795776 0.3162262737751007 -0.38062769174575806 -0.17969633638858795 0.1370173692703247 -0.027611594647169113 
情 0.057479750365018845 0.44944819808006287 0.53331059217453 0.4252161681652069 -0.12551404535770416 0.055052585899829865 -0.3659767210483551 -0.1529158055782318 0.192044198513031 -0.34128522872924805 
扔 -0.18980973958969116 -0.11969094723463058 0.03774983435869217 0.2729228734970093 -0.11468607187271118 0.1136644259095192 -0.38536956906318665 0.655587911605835 -0.17070627212524414 -0.4901183545589447 
了 0.3523727059364319 0.3257412314414978 0.4180663228034973 0.17774908244609833 -0.5740692019462585 -0.2880113422870636 -0.20877879858016968 0.09908998757600784 -0.26075562834739685 -0.17159529030323029 
两 0.5335169434547424 0.4620180130004883 0.3472077548503876 -0.15840132534503937 -0.37567853927612305 -0.08642956614494324 -0.029804840683937073 0.3475571572780609 -0.2931938171386719 -0.0018561817705631256 
颗 -0.24822819232940674 -0.30678701400756836 0.32045307755470276 0.21538640558719635 -0.3865947425365448 -0.2812519073486328 0.020940568298101425 0.5730586647987366 -0.10889541357755661 -0.3548687994480133 
手 0.07608748227357864 0.07066161930561066 0.5841360688209534 -0.06889592856168747 -0.4221856892108917 -0.15298859775066376 -0.3776969909667969 0.5110360383987427 -0.16961507499217987 0.09501399099826813 
榴 -0.06467613577842712 -0.30797266960144043 0.21014271676540375 0.07897432148456573 -0.43054619431495667 -0.13567860424518585 -0.09151925146579742 0.6509343981742859 0.2774997353553772 -0.3710750341415405 
弹 -0.23193031549453735 0.03205125778913498 0.3916935920715332 -0.2086305171251297 -0.3636840283870697 -0.2976585924625397 -0.49459928274154663 0.40993475914001465 0.2256568968296051 -0.25252261757850647 
下 0.3674154281616211 0.13079142570495605 0.10532545298337936 -0.029382385313510895 -0.46893754601478577 0.022798826918005943 -0.23789554834365845 0.34256625175476074 -0.5283602476119995 -0.40300115942955017 
子 0.2737989127635956 -0.46774545311927795 0.5354493260383606 0.19783776998519897 -0.17012028396129608 0.003123757429420948 -0.28125855326652527 0.401215523481369 -0.1559562236070633 -0.29504111409187317 
溜 -0.12383592128753662 0.0016245939768850803 0.256306916475296 0.38127171993255615 -0.0925133004784584 -0.07902424782514572 -0.08266062289476395 0.6484772562980652 0.052477702498435974 -0.5733128786087036 
去 0.45942366123199463 0.2038368135690689 0.09256721287965775 0.35034194588661194 -0.43797051906585693 0.04941098392009735 -0.055441755801439285 0.34119918942451477 -0.5203357934951782 -0.17768685519695282 
废 0.08651638776063919 -0.09955158829689026 -0.16379548609256744 0.012747610919177532 -0.3003578186035156 -0.22670979797840118 -0.46629273891448975 0.2750193476676941 0.3428637385368347 -0.6351225972175598 
除 0.3759825527667999 0.28313538432121277 0.040758322924375534 0.024379240348935127 -0.25709837675094604 0.0060999635607004166 -0.6647298336029053 0.4286145865917206 0.06247304379940033 -0.28390130400657654 
前 0.4012047350406647 0.5490865707397461 0.22336821258068085 0.1261327713727951 -0.5170292258262634 -0.14432886242866516 0.08371742814779282 0.3540540933609009 -0.2263239324092865 0.00046959950122982264 
存 0.2668634355068207 0.3911781311035156 0.10113994777202606 0.21768108010292053 -0.5808213949203491 -0.007052781991660595 -0.5133547782897949 0.0077027627266943455 0.07896214723587036 -0.3330443799495697 
在 0.4854247570037842 0.39457952976226807 0.45733216404914856 0.05011432617902756 -0.5065107941627502 0.04311549291014671 -0.0009249869617633522 0.32812952995300293 -0.16751894354820251 -0.05348866432905197 
所 0.540867030620575 0.14939257502555847 0.3247254490852356 0.13208362460136414 -0.4881305694580078 -0.23266570270061493 -0.47836652398109436 -0.15043076872825623 -0.041331060230731964 -0.12913165986537933 
制 0.19825507700443268 0.3433436155319214 0.12225888669490814 -0.30766957998275757 -0.36695975065231323 -0.45203834772109985 -0.5056977868080139 -0.006501106545329094 0.29894039034843445 -0.2215091586112976 
关 0.44466617703437805 0.6078450679779053 0.4474816620349884 -0.17783087491989136 -0.15395940840244293 -0.048029620200395584 -0.35817837715148926 -0.018390031531453133 0.06745049357414246 -0.20431064069271088 
系 0.2553599178791046 0.5706388354301453 0.538661539554596 -0.25898757576942444 -0.20312422513961792 -0.25790801644325256 -0.2403624802827835 -0.057472098618745804 0.20972009003162384 -0.19772717356681824 
并 0.35120511054992676 0.5253680944442749 0.23523592948913574 0.2330974042415619 -0.31733205914497375 -0.37022238969802856 -0.49331554770469666 0.035563625395298004 -0.09059251844882965 -0.019410567358136177 
独 0.19201326370239258 0.06221240013837814 0.5693299174308777 -0.14598524570465088 -0.5692147612571716 -0.14706863462924957 -0.42261552810668945 0.17582201957702637 0.1507670134305954 0.18955138325691223 
具 0.16511821746826172 0.17646822333335876 0.4259541630744934 -0.07076536864042282 -0.4681421220302582 -0.37826696038246155 -0.4909735918045044 -0.22039027512073517 -0.03881583362817764 -0.31902000308036804 
特 0.27251487970352173 0.2806687653064728 0.2466573715209961 0.006675034295767546 -0.5003065466880798 -0.035318516194820404 -0.3117918074131012 0.3112652003765106 0.28675001859664917 0.5081303715705872 
案 0.36596089601516724 0.1459098607301712 0.18629685044288635 0.007028388325124979 -0.0033028286416083574 -0.6952375173568726 -0.4829873740673065 0.2540401816368103 0.09648938477039337 -0.1397767961025238 
始 0.23660196363925934 0.5737242102622986 0.11688078194856644 -0.0726664662361145 -0.5373450517654419 -0.08948815613985062 0.07430277019739151 0.34083792567253113 -0.3669370114803314 -0.20696991682052612 
至 0.33836156129837036 0.19316279888153076 -0.2827649414539337 0.32161223888397217 -0.5701513886451721 -0.16105711460113525 0.012712736614048481 0.4220917820930481 -0.34297966957092285 -0.133562371134758 
今 0.46153712272644043 0.4264753460884094 0.1568966507911682 0.2763397693634033 -0.3392619788646698 -0.06414061784744263 0.20563222467899323 0.48986202478408813 -0.2879370450973511 0.14054250717163086 
都 0.447826087474823 0.25419846177101135 0.39827919006347656 0.22499153017997742 -0.4561578631401062 0.0463542714715004 -0.31322401762008667 0.2837221920490265 -0.3697756826877594 0.004137736279517412 
没 0.3368714153766632 0.1674237996339798 0.2176348716020584 0.4046834111213684 -0.16796669363975525 -0.07337301224470139 -0.608464777469635 0.18528160452842712 -0.4278150200843811 -0.16177919507026672 
跟 0.2511359751224518 0.22116078436374664 0.5566517114639282 0.35800984501838684 -0.040754545480012894 -0.04550906643271446 -0.43364599347114563 0.2971547245979309 -0.29897964000701904 -0.28375309705734253 
法 0.4475550055503845 0.27393725514411926 0.3659610152244568 -0.06124641001224518 -0.07555525749921799 -0.3393417000770569 -0.5106242299079895 0.16809988021850586 0.4084845781326294 0.10128512978553772 
官 0.585674524307251 0.1091322973370552 0.4538523852825165 -0.2283661812543869 0.03894999250769615 0.05989765748381615 -0.3905656039714813 0.4380922317504883 0.12968756258487701 0.14336128532886505 
接 0.5385589003562927 0.5345674157142639 0.0046217474155128 0.33457493782043457 -0.15925836563110352 0.10743983834981918 -0.31692925095558167 0.1664954423904419 0.07566575706005096 -0.3760764002799988 
触 0.19590048491954803 0.5999387502670288 0.20787760615348816 0.5311364531517029 -0.08794501423835754 0.05832381546497345 -0.34795472025871277 0.07771798223257065 0.1447250247001648 -0.34232115745544434 
过 0.4541962742805481 0.325675368309021 0.13617634773254395 0.20557549595832825 -0.5264122486114502 -0.35087087750434875 -0.21139153838157654 0.06285008788108826 -0.2755937874317169 -0.31941714882850647 
原 0.3213389217853546 -0.05285142734646797 0.19435016810894012 0.025359997525811195 -0.5400275588035583 -0.3423214256763458 -0.5710344910621643 0.317440927028656 0.10637236386537552 0.09249302744865417 
告 0.6870633959770203 0.18716956675052643 0.39570289850234985 0.45188426971435547 0.02667062170803547 -0.2896975874900818 -0.08118471503257751 0.1404174566268921 0.1319074034690857 -0.061543796211481094 
、 0.2985643744468689 -0.12101633846759796 0.4057166874408722 -0.22936579585075378 -0.4567355811595917 0.13968101143836975 -0.18566106259822845 0.08477794378995895 0.6236618757247925 -0.14237269759178162 
被 0.4039936363697052 0.09303836524486542 0.06248151883482933 0.20485177636146545 -0.15504145622253418 -0.19169969856739044 -0.5056586861610413 0.652678906917572 -0.10359709709882736 -0.17048589885234833 
你 0.21874350309371948 0.054940734058618546 0.4320043623447418 0.6729883551597595 0.03801312670111656 0.05978873744606972 -0.35712930560112 0.2432832568883896 -0.2983261048793793 -0.1698397696018219 
只 0.2945803999900818 -0.049139704555273056 0.1537705957889557 0.3228675127029419 -0.3350861668586731 -0.18681837618350983 -0.5042937397956848 0.30152803659439087 -0.5305491089820862 -0.094981350004673 
把 0.31322136521339417 0.10138069838285446 0.5932117104530334 -0.07331514358520508 -0.35795000195503235 0.11516375839710236 -0.507617175579071 0.1430070400238037 -0.3355512320995331 -0.04719490930438042 
做 0.2960047423839569 0.12875059247016907 0.5980794429779053 0.14229720830917358 -0.2071794718503952 -0.20629224181175232 -0.4939572215080261 -0.09258072078227997 -0.33249929547309875 -0.26316604018211365 
好 0.17531515657901764 0.32602658867836 0.6980404853820801 0.11329393088817596 -0.3213596045970917 -0.08066076040267944 -0.33756789565086365 -0.17338226735591888 -0.16049860417842865 -0.28865846991539 
伙 0.2047099769115448 0.4071681499481201 0.724846363067627 -0.14809413254261017 0.024691330268979073 -0.012201582081615925 -0.02431700937449932 0.2351871132850647 0.05926531180739403 -0.4298819899559021 
才 0.2611539959907532 0.009455161169171333 0.37376025319099426 0.2683190107345581 -0.6224963665008545 -0.01498751062899828 -0.4568016529083252 -0.20451943576335907 -0.28043901920318604 -0.05611523985862732 
服 0.5685704350471497 -0.032344866544008255 0.2950645685195923 -0.13032348453998566 -0.18864864110946655 -0.052222494035959244 -0.5192020535469055 -0.14881864190101624 0.37042802572250366 -0.32308515906333923 
那 0.1324339359998703 0.023140503093600273 0.47745370864868164 0.527829647064209 -0.12037476897239685 -0.07167678326368332 -0.26668840646743774 0.4763820767402649 -0.38304442167282104 -0.1046249195933342 
阵 -0.23275375366210938 0.17454880475997925 -0.13009800016880035 0.27042171359062195 -0.6430227756500244 0.14504022896289825 0.07576588541269302 0.6000635027885437 0.152284175157547 0.04222344607114792 
条 0.15060169994831085 0.04563530907034874 0.27953213453292847 -0.1663726568222046 -0.3061619699001312 -0.7037168741226196 -0.23059961199760437 0.25186723470687866 -0.05521177127957344 -0.401003897190094 
件 0.2332509607076645 0.008785649202764034 0.19848817586898804 0.0006849693018011749 -0.2327423393726349 -0.7286403179168701 -0.3697255849838257 0.09220007807016373 -0.038789235055446625 -0.4175291657447815 
虽 0.10789822787046432 0.37879064679145813 0.026934033259749413 0.48448511958122253 -0.4810963273048401 0.2145203948020935 -0.3461039960384369 0.29989928007125854 -0.3423539102077484 0.07083861529827118 
艰 -0.2394537478685379 -0.005933593492954969 0.30870088934898376 0.06007004156708717 -0.6488215923309326 0.3406161069869995 -0.3689405620098114 -0.10294060409069061 -0.3658035397529602 -0.1618862897157669 
苦 -0.1830560863018036 -0.20105062425136566 0.33756062388420105 0.22043012082576752 -0.4697035849094391 0.48056676983833313 -0.4559650719165802 0.011618814431130886 -0.3025645613670349 -0.11127525568008423 
家 0.7527452707290649 0.05505181476473808 0.38819214701652527 -0.08251726627349854 -0.5016260147094727 0.08434340357780457 -0.06782452762126923 -0.040945302695035934 0.04637308418750763 -0.07531283050775528 
热 -0.14492301642894745 0.39880144596099854 0.4836922883987427 0.5048924088478088 -0.32453685998916626 0.16091354191303253 -0.1588883399963379 0.053862012922763824 0.3289962708950043 -0.2519475519657135 
着 0.018035830929875374 0.2986387312412262 0.5242041349411011 0.2710992097854614 -0.30996909737586975 0.35126930475234985 -0.2319265455007553 0.34683969616889954 -0.10889855027198792 -0.39596375823020935 
呢 -0.08359372615814209 -0.25561484694480896 0.5652651786804199 0.45840439200401306 0.07735246419906616 -0.20594748854637146 -0.42914068698883057 0.09442200511693954 -0.06075320020318031 -0.3909575939178467 
什 0.14935913681983948 -0.0865970328450203 0.43536177277565 0.4744495153427124 0.06952472031116486 -0.2421947866678238 -0.5672776103019714 0.26470592617988586 -0.2486443966627121 0.1958608627319336 
么 0.11583516001701355 -0.11897807568311691 0.495612770318985 0.4867127239704132 0.015858441591262817 -0.2272752821445465 -0.5257219672203064 0.12672081589698792 -0.37126630544662476 -0.08785949647426605 
抢 0.11800011992454529 0.2196703553199768 -0.15416087210178375 -0.06701377034187317 -0.16766665875911713 0.3168589770793915 -0.6564380526542664 0.4481821060180664 0.098173126578331 -0.3736799657344818 
干 0.4220525026321411 -0.11544562131166458 0.33552706241607666 -0.39449945092201233 -0.19167333841323853 0.25572359561920166 -0.5788500905036926 0.282305508852005 -0.14481674134731293 -0.04966654255986214 
谁 0.1664164513349533 0.12740778923034668 0.2774387300014496 0.48543983697891235 -0.06981763243675232 -0.10472697019577026 -0.6769315004348755 0.169179305434227 -0.37055858969688416 -0.05860748887062073 
作 0.4522973299026489 0.1303146630525589 0.4987245202064514 -0.11973695456981659 -0.3902517259120941 -0.303792804479599 -0.32657235860824585 -0.2897300720214844 0.00835882406681776 -0.2830773890018463 
贡 0.04270161688327789 0.0685543417930603 0.25693464279174805 0.400696724653244 -0.5819265246391296 -0.3887180685997009 -0.14386774599552155 -0.48482707142829895 -0.0052187093533575535 -0.14622220396995544 
哎 -0.09005425125360489 -0.235495924949646 0.2851031720638275 0.45691439509391785 -0.2511798143386841 0.15815165638923645 -0.3337009847164154 0.5456956624984741 0.2910687327384949 -0.25379711389541626 
怎 0.1230706050992012 -0.06475324183702469 0.6310561895370483 0.36402344703674316 0.04168742150068283 -0.16419753432273865 -0.47477903962135315 0.0740913525223732 -0.37740227580070496 -0.2188146859407425 
来 0.39353233575820923 0.4017524719238281 0.2212015986442566 0.35341185331344604 -0.5497263669967651 0.07461237162351608 0.012797033414244652 0.18395960330963135 -0.37962764501571655 -0.15494857728481293 
诉 0.6760897636413574 0.1345566064119339 0.33007919788360596 0.5170263051986694 0.1604498028755188 -0.09780366718769073 -0.2890644073486328 0.14347504079341888 0.04864434525370598 -0.08190980553627014 
声 -0.09479906409978867 0.3080209493637085 0.538695752620697 0.6577142477035522 -0.1532403528690338 -0.1411462277173996 0.012538667768239975 0.23785287141799927 0.2665957510471344 0.04632246121764183 
种 0.09582541882991791 -0.08075379580259323 0.311876505613327 0.09144780039787292 -0.4905550181865692 -0.4014180302619934 -0.4945155680179596 0.05198520049452782 -0.16525298357009888 -0.44981029629707336 
菜 -0.0040410710498690605 -0.5159574747085571 0.14756342768669128 0.020038101822137833 -0.3520738184452057 0.04858837276697159 -0.2919546961784363 0.35853952169418335 0.01564600132405758 -0.6092990636825562 
烦 -0.12476753443479538 -0.26687854528427124 0.2968609631061554 0.5893051028251648 -0.08486071228981018 0.16839157044887543 -0.5611761212348938 0.0771123543381691 -0.0664718747138977 -0.34199637174606323 
恼 -0.13546523451805115 -0.21082806587219238 0.2946556806564331 0.6129815578460693 -0.3352203965187073 0.32881829142570496 -0.39658403396606445 0.008500461466610432 -0.14789162576198578 -0.2737065851688385 
累 0.16445128619670868 0.0963350459933281 -0.20207203924655914 -0.028706222772598267 -0.7346317768096924 -0.23447813093662262 -0.4275820851325989 -0.04028226435184479 -0.31338053941726685 -0.21141858398914337 
时 0.3675990104675293 0.47314608097076416 0.2695505917072296 0.3309206962585449 -0.4563031494617462 -0.21130378544330597 -0.13475382328033447 0.24895037710666656 -0.344088077545166 0.08628051728010178 
候 0.3067362606525421 0.33743157982826233 0.5284565687179565 0.3761478662490845 -0.22240446507930756 0.04789367690682411 -0.33993035554885864 0.3176766633987427 -0.30486711859703064 0.10063154250383377 
； 0.37004554271698 0.08260049670934677 0.13614757359027863 -0.11074890196323395 -0.7216359972953796 -0.2919872999191284 -0.4265410304069519 0.18997597694396973 -0.0363406203687191 0.00883751455694437 
另 0.33694806694984436 0.25458356738090515 0.2407350242137909 -0.1378476321697235 -0.2044859677553177 -0.4063085913658142 -0.22146940231323242 0.4917943775653839 -0.38463959097862244 -0.314545214176178 
棚 -0.04640901833772659 -0.29320839047431946 0.06704185903072357 -0.22402629256248474 -0.5068113803863525 0.026719829067587852 -0.1435348093509674 0.367471307516098 0.0022317070979624987 -0.6663171648979187 
降 -0.015237527899444103 0.15535759925842285 -0.4173623025417328 0.10272816568613052 -0.6953123807907104 -0.18939685821533203 -0.29395803809165955 0.28617244958877563 -0.21228855848312378 -0.24121476709842682 
价 0.13333770632743835 0.0934746265411377 -0.23170332610607147 0.1405089944601059 -0.562468409538269 -0.5855574607849121 -0.45626300573349 0.020004713907837868 0.15040771663188934 -0.09801807999610901 
田 0.18239013850688934 -0.08894016593694687 0.12679128348827362 -0.21634142100811005 -0.7150300145149231 0.2042016237974167 0.09007646888494492 0.4792459011077881 0.10802391916513443 -0.3058072030544281 
明 0.09104151278734207 0.2410878986120224 0.5316979289054871 0.29805663228034973 -0.5505908727645874 -0.3957280218601227 -0.02436765469610691 0.013359918259084225 0.11006436496973038 0.2990153431892395 
白 0.02214462123811245 -0.3432488739490509 0.28884342312812805 0.35075539350509644 -0.3224932849407196 -0.055075228214263916 -0.1095346063375473 0.6180763840675354 0.41705238819122314 -0.015681009739637375 
账 0.42880675196647644 0.11922980099916458 -0.05623088777065277 0.14087411761283875 -0.04848477244377136 -0.5548202395439148 -0.5322222113609314 0.21267631649971008 -0.016943415626883507 -0.3740941286087036 
投 0.5003970265388489 0.2691737115383148 -0.18760746717453003 -0.17409764230251312 -0.6031749844551086 -0.23512761294841766 -0.292594850063324 -0.05739060416817665 0.0455692820250988 -0.3186763823032379 
本 0.5933746695518494 0.4357992708683014 0.17676427960395813 0.16390596330165863 -0.4473973214626312 -0.3010595440864563 0.08697086572647095 0.10967805981636047 0.29885417222976685 0.0129087520763278 
赚 0.26613372564315796 -0.28015726804733276 -0.069829560816288 0.4125041961669922 -0.28259867429733276 -0.18529599905014038 -0.4092850089073181 0.18343621492385864 -0.48877453804016113 -0.348408579826355 
利 0.2966855466365814 0.3783080577850342 -0.1277809590101242 0.18252834677696228 -0.5797950625419617 0.004286358132958412 -0.44081297516822815 0.04722246155142784 0.3330760598182678 0.27486300468444824 
润 0.07242938131093979 -0.023480933159589767 -0.36086273193359375 0.3668925166130066 -0.7007337808609009 0.023165743798017502 -0.4244385361671448 0.06876283138990402 0.22900070250034332 -0.022101162001490593 
起 0.23031014204025269 0.3814775049686432 0.35519909858703613 0.1488460749387741 -0.5647491216659546 -0.01751512475311756 -0.04421314597129822 0.2775912284851074 -0.3229921758174896 -0.387977659702301 
码 0.28530967235565186 -0.13423463702201843 0.08882781863212585 0.05531352013349533 -0.31961074471473694 -0.4779917597770691 -0.15592585504055023 0.5140510201454163 0.28295448422431946 -0.4363229274749756 
道 0.5281863212585449 0.11154309660196304 0.43975329399108887 0.46782952547073364 -0.13735395669937134 -0.12719713151454926 0.13384059071540833 0.31667014956474304 0.3693082928657532 -0.08187008649110794 
理 0.31446054577827454 -0.019503945484757423 0.45165738463401794 -0.24586878716945648 -0.2931750416755676 -0.20629504323005676 -0.5992414951324463 -0.04494378715753555 0.23556385934352875 0.3019576370716095 
长 0.5963196158409119 0.0749397948384285 0.15062066912651062 -0.08730534464120865 -0.6334606409072876 0.12317584455013275 -0.12461518496274948 0.14346998929977417 0.27576565742492676 0.28262022137641907 
岁 0.3513346314430237 -0.3601994514465332 0.082800954580307 0.3044359087944031 -0.5974237322807312 -0.00395698519423604 0.16724348068237305 0.3523249924182892 -0.3495238721370697 0.12681494653224945 
月 0.5975841879844666 0.14709284901618958 -0.0879378691315651 0.18865983188152313 -0.4435268044471741 -0.23824919760227203 0.28630176186561584 0.4741317331790924 -0.12497243285179138 -0.04543868452310562 
传 0.31600475311279297 0.17190030217170715 0.6133388876914978 0.06358600407838821 -0.30209431052207947 -0.30103060603141785 -0.13365022838115692 -0.04631305858492851 0.5369850397109985 -0.011085799895226955 
统 0.40662986040115356 0.31584134697914124 0.3517761826515198 -0.1534203141927719 -0.30312204360961914 -0.3645692765712738 -0.23029352724552155 0.18302412331104279 0.39381322264671326 0.3481331169605255 
激 -0.23564204573631287 0.550622284412384 0.3413693904876709 0.327461838722229 -0.5292046070098877 0.23406079411506653 -0.13273344933986664 -0.09882742911577225 0.08742976933717728 -0.21829479932785034 
卫 0.31826961040496826 -0.0637190118432045 0.37457919120788574 -0.30521076917648315 -0.6303532123565674 0.041123803704977036 0.019095435738563538 0.21277043223381042 0.4469614028930664 -0.12936191260814667 
曾 0.6095727682113647 0.21377483010292053 0.3558636009693146 0.3852008879184723 -0.45870405435562134 0.08761972188949585 0.03806237876415253 0.2020409107208252 -0.14532186090946198 0.16195173561573029 
经 0.27514687180519104 0.5252251625061035 0.1143932119011879 -0.1417502760887146 -0.7122213840484619 -0.013471486046910286 -0.12048803269863129 -0.24532967805862427 0.11291209608316422 -0.14268764853477478 
历 0.014227205887436867 0.17907464504241943 0.5085811614990234 0.22909845411777496 -0.7301351428031921 -0.12423484772443771 0.15073969960212708 -0.2151404470205307 -0.1890554577112198 0.05751041695475578 
车 0.26668986678123474 0.12991461157798767 0.0304033774882555 -0.10798117518424988 -0.04966431111097336 -0.21275897324085236 -0.19892767071723938 0.650842547416687 0.18884973227977753 -0.5940109491348267 
上 0.30702686309814453 0.3668210804462433 0.33629530668258667 0.1132071241736412 -0.5740913152694702 -0.374362051486969 -0.011193616315722466 0.3608162999153137 -0.15282870829105377 -0.14788004755973816 
话 0.4449254870414734 0.264794260263443 0.52357417345047 0.43130770325660706 0.07165022194385529 -0.4363918900489807 -0.047030262649059296 0.16490209102630615 0.07150094211101532 -0.20415818691253662 
敢 -0.11255615949630737 0.25173240900039673 0.41481801867485046 0.4188089370727539 -0.06873182952404022 0.2563802897930145 -0.6617765426635742 0.24169480800628662 -0.0954536572098732 -0.023581134155392647 
讲 0.3355160653591156 0.1673908531665802 0.8291919231414795 0.28935706615448 -0.045447785407304764 -0.2622479200363159 -0.0824533998966217 0.011652512475848198 0.022170379757881165 0.09928353130817413 
到 0.4393370449542999 0.33590346574783325 0.038666434586048126 0.37622836232185364 -0.5559444427490234 0.0024515565019100904 -0.2632893919944763 0.1888742446899414 -0.3352351188659668 -0.15700757503509521 
单 0.5394967794418335 -0.2358446568250656 0.4243447184562683 -0.23216842114925385 -0.18824104964733124 -0.38561153411865234 -0.33945396542549133 0.19465552270412445 -0.19293555617332458 -0.2118372619152069 
就 0.4448719918727875 0.2487017959356308 0.3654555678367615 0.12829843163490295 -0.3600271940231323 -0.13049840927124023 -0.404234379529953 0.07518624514341354 -0.4690580368041992 -0.2334412783384323 
然 -0.06734408438205719 0.442597359418869 0.021686363965272903 0.5265370607376099 -0.46928808093070984 0.15819811820983887 -0.4524834454059601 0.22000592947006226 -0.1513817459344864 -0.02329396829009056 
路 -0.017130566760897636 0.2145167589187622 0.2984169125556946 -0.2624810039997101 -0.3009229004383087 -0.1550142765045166 -0.14385859668254852 0.6835123896598816 0.2844441533088684 -0.3352062702178955 
队 0.1882210522890091 0.17894259095191956 0.255467027425766 -0.24452035129070282 -0.41852447390556335 0.1441284716129303 -0.18437333405017853 0.6037847399711609 -0.0745924562215805 0.4554661512374878 
伍 0.1786208599805832 -0.04206247627735138 0.38587889075279236 -0.5531594157218933 -0.3845916986465454 0.13422895967960358 -0.41958358883857727 0.33252671360969543 -0.04682650789618492 0.23810118436813354 
里 0.500551164150238 -0.013779805041849613 0.2014036774635315 0.24762699007987976 -0.24009783565998077 -0.003393904771655798 -0.20652921497821808 0.7239347100257874 -0.06163184344768524 0.13850410282611847 
肃 0.09346144646406174 0.1499212086200714 0.33069029450416565 -0.12533403933048248 0.16813166439533234 0.0651022270321846 -0.6708592772483826 0.4704750180244446 0.3729211986064911 0.027352632954716682 
无 0.15619558095932007 0.14840926229953766 0.26882699131965637 0.43456146121025085 -0.23392584919929504 -0.22904054820537567 -0.7443968057632446 0.11882315576076508 0.0954129695892334 -0.08908472210168839 
但 0.2215820699930191 0.3828650712966919 0.14827533066272736 0.4024919867515564 -0.37226080894470215 -0.05152774602174759 -0.5222034454345703 0.20270231366157532 -0.40046045184135437 0.07031377404928207 
失 0.280775249004364 0.20982375741004944 -0.20323090255260468 0.31446269154548645 -0.5690163969993591 0.022847885265946388 -0.49552708864212036 -0.04379091411828995 -0.2166750729084015 -0.3438533842563629 
望 0.27645283937454224 0.40898850560188293 0.36590805649757385 0.43554216623306274 -0.3850651681423187 0.3658130466938019 -0.1907254457473755 0.08430840820074081 -0.2071235626935959 0.2534521520137787 
让 0.42431697249412537 0.0537467822432518 0.3394569158554077 0.5176640748977661 -0.2608623802661896 0.24628055095672607 -0.4490385353565216 0.07192917168140411 -0.24672149121761322 -0.19358494877815247 
同 0.43805259466171265 0.35570794343948364 0.4226575195789337 0.14802560210227966 -0.47966891527175903 0.11100668460130692 -0.2834097445011139 -0.027086185291409492 -0.1889064908027649 0.34912118315696716 
迎 0.07552195340394974 0.6253935694694519 0.4128362536430359 0.5221612453460693 -0.25265052914619446 0.0836186334490776 0.19451896846294403 0.1383451372385025 0.17195363342761993 -0.05219072103500366 
艾 0.26567158102989197 0.08780884742736816 0.005087148863822222 0.4858098328113556 -0.19937562942504883 0.09336729347705841 -0.38891807198524475 0.15624314546585083 0.6256968975067139 0.26464536786079407 
滋 -0.03350045904517174 -0.014187047258019447 0.10181115567684174 0.5209278464317322 -0.20959286391735077 0.2288455367088318 -0.5505893230438232 0.020644793286919594 0.5625035166740417 0.02570509724318981 
病 0.10621962696313858 -0.21910712122917175 0.061868708580732346 0.4317741394042969 -0.25321006774902344 0.16639751195907593 -0.6859193444252014 -0.0560888908803463 0.41572633385658264 -0.11040659248828888 
！ -0.10556692630052567 -0.31384459137916565 0.43789300322532654 0.6305790543556213 -0.16328924894332886 -0.05037468671798706 -0.2474990040063858 0.12122846394777298 -0.06537044048309326 -0.4376648962497711 
现 0.11872854083776474 0.4654141068458557 0.45481476187705994 0.09634115546941757 -0.6397555470466614 -0.29880139231681824 -0.07038237154483795 -0.10983003675937653 -0.11871378123760223 -0.15322045981884003 
代 0.38011789321899414 0.20531733334064484 0.4982532262802124 0.06916887313127518 -0.654626190662384 -0.20300419628620148 0.24228571355342865 -0.13085778057575226 -0.09767071902751923 0.07212962955236435 
化 -0.052038002759218216 0.0559520423412323 0.42763736844062805 -0.26991403102874756 -0.6967600584030151 -0.180672287940979 -0.08633561432361603 -0.1958160549402237 0.32512226700782776 -0.2623260021209717 
舰 0.2295302301645279 0.07527558505535126 0.1870550960302353 -0.39585158228874207 -0.24646121263504028 0.018664658069610596 -0.026434559375047684 0.8161278963088989 0.1068345457315445 -0.10340562462806702 
技 0.23488375544548035 -0.12190833687782288 0.383309006690979 -0.23070652782917023 -0.6748183965682983 -0.23878894746303558 -0.13473089039325714 -0.3756795823574066 0.20420604944229126 -0.12817586958408356 
术 0.21690857410430908 -0.14152508974075317 0.47671008110046387 -0.17018671333789825 -0.6161708831787109 -0.2744877338409424 -0.044644713401794434 -0.34145453572273254 0.288766473531723 -0.14044512808322906 
简 0.23059211671352386 -0.281756192445755 0.5226871371269226 0.06270018965005875 -0.08546432852745056 -0.5290755033493042 -0.47255057096481323 0.14061997830867767 0.024746783077716827 -0.2437048703432083 
岗 0.49805352091789246 -0.23930130898952484 0.22092238068580627 -0.1860109120607376 -0.2613796591758728 0.08661913871765137 -0.2902110517024994 0.08956510573625565 -0.4818804860115051 -0.45934242010116577 
当 0.49985572695732117 0.44334253668785095 0.2971806526184082 0.2923845946788788 -0.40293750166893005 0.022558003664016724 -0.25562584400177 0.20156262814998627 -0.3219431936740875 0.08543715626001358 
很 -0.05062205716967583 0.2643738090991974 0.25076648592948914 0.42912906408309937 -0.551447868347168 -0.01661647856235504 -0.4746442437171936 -0.14432676136493683 -0.29917779564857483 -0.20127786695957184 
伤 0.09317705035209656 -0.09339676797389984 -0.03905024006962776 0.515849232673645 -0.35354524850845337 0.22430486977100372 -0.6490816473960876 0.07349901646375656 0.10336718708276749 -0.319795161485672 
认 0.4329705238342285 0.20492161810398102 0.47548818588256836 0.19922268390655518 -0.22478482127189636 -0.14778748154640198 -0.4966023862361908 -0.11313626170158386 -0.16924583911895752 0.3799178898334503 
辈 0.16499708592891693 -0.20426338911056519 0.6961082816123962 0.19511745870113373 -0.2583242952823639 0.3415296673774719 -0.043413545936346054 0.11639987677335739 -0.4468904733657837 -0.0994795486330986 
算 0.4019182622432709 0.1796676218509674 -0.010650673881173134 -0.13895848393440247 -0.23137108981609344 -0.6470900177955627 -0.5087621212005615 0.21305319666862488 -0.029093576595187187 -0.09707356244325638 
完 0.3195866048336029 0.2750757038593292 0.15726564824581146 -0.24098363518714905 -0.56601482629776 -0.3120768070220947 -0.4429256021976471 0.06251068413257599 -0.3402276933193207 -0.07603918015956879 
孩 0.2088405042886734 -0.3785507082939148 0.542057454586029 0.36610665917396545 -0.11320576071739197 0.24825389683246613 -0.27675533294677734 0.17679062485694885 -0.4006432294845581 -0.2059508115053177 
天 0.3515450954437256 0.35866779088974 0.24830736219882965 0.2794620990753174 -0.29763951897621155 -0.008544194512069225 0.2903761863708496 0.6491066813468933 -0.11431171745061874 -0.025112733244895935 
资 0.470085471868515 0.1786734163761139 -0.18058134615421295 -0.11268877238035202 -0.5868664383888245 -0.1923472136259079 -0.3468768894672394 -0.19073408842086792 0.23264463245868683 -0.33098453283309937 
还 0.48069673776626587 0.33495476841926575 0.2614830732345581 0.32256433367729187 -0.2947136163711548 -0.0650964006781578 -0.4891141355037689 0.20341607928276062 -0.3351476490497589 0.016925018280744553 
错 0.012576878070831299 0.11017359793186188 0.3453662097454071 0.3722379803657532 -0.019381627440452576 -0.4765281677246094 -0.70058673620224 0.07015581429004669 -0.02330031991004944 -0.07825206220149994 
习 0.10350733250379562 -0.16668441891670227 0.7184733748435974 -0.08810572326183319 -0.4448077380657196 -0.028559861704707146 -0.3061087131500244 -0.19112655520439148 -0.07375036925077438 0.32124027609825134 
绩 -0.033937305212020874 -0.05414581671357155 0.26428937911987305 0.0728241354227066 -0.6974241733551025 -0.4773511290550232 -0.2066192477941513 -0.049245454370975494 -0.3505220115184784 0.196258544921875 
般 -0.05755392089486122 -0.1077246144413948 0.4100535809993744 0.35392990708351135 -0.29851406812667847 -0.3105302155017853 -0.35856133699417114 0.39479267597198486 -0.2529065012931824 -0.3971698582172394 
小 0.21161368489265442 -0.38270679116249084 0.2803667187690735 -0.17782112956047058 -0.7534570097923279 0.028671544045209885 -0.03640969097614288 0.2632865905761719 -0.08737903833389282 0.22744032740592957 
较 -0.19523411989212036 0.26883599162101746 0.04640261083841324 0.10780367255210876 -0.7443699240684509 -0.25661614537239075 -0.4794674515724182 -0.037670183926820755 -0.15557804703712463 0.019621673971414566 
老 0.42406535148620605 -0.34992679953575134 0.5460172891616821 0.1634020060300827 -0.3086240887641907 0.3994520604610443 -0.19128994643688202 0.24121616780757904 -0.13055886328220367 -0.07906490564346313 
师 0.5550568699836731 -0.3525765538215637 0.6317251920700073 -0.003864486701786518 -0.33127161860466003 0.05353103578090668 -0.1699887216091156 -0.07597174495458603 0.11795929819345474 0.08556374907493591 
别 0.4161236882209778 0.19465851783752441 0.26424461603164673 -0.08493693917989731 -0.38538703322410583 -0.003787541063502431 -0.4705982506275177 0.3782590627670288 -0.18703149259090424 0.404782235622406 
喜 0.015475984662771225 0.0733141303062439 0.4558256268501282 0.7744472622871399 -0.3229748606681824 0.23039206862449646 0.08565768599510193 0.10868685692548752 0.09545199573040009 -0.03443130478262901 
欢 0.039225537329912186 0.4216664433479309 0.49398961663246155 0.6736977100372314 -0.14702408015727997 0.14355376362800598 0.1464218944311142 0.09584639966487885 0.21505798399448395 -0.06053859367966652 
反 0.05029589682817459 0.7154081463813782 0.40262115001678467 0.09235071390867233 -0.1482316106557846 -0.025832897052168846 -0.4600939452648163 0.16587883234024048 0.20753547549247742 -0.10057788342237473 
鲨 -0.14141635596752167 -0.44671663641929626 0.09371980279684067 0.014254695735871792 -0.27607831358909607 -0.26882603764533997 -0.3419018089771271 0.3965851068496704 0.403518944978714 -0.43124040961265564 
鱼 -0.003501724451780319 -0.3404839038848877 0.10849741846323013 0.284610778093338 -0.20307812094688416 0.04092137888073921 -0.10424505174160004 0.6218971610069275 0.2534848153591156 -0.5352480411529541 
软 0.17089007794857025 -0.044347621500492096 0.06010345742106438 0.05415797233581543 -0.1985233873128891 -0.609887421131134 -0.49233266711235046 0.07836891710758209 0.41444748640060425 -0.36140042543411255 
骨 -0.13288070261478424 -0.5394995808601379 0.36766713857650757 -0.09571758657693863 -0.314215749502182 0.07826420664787292 -0.5635656118392944 0.1639930158853531 0.20515096187591553 -0.23558096587657928 
素 0.053607769310474396 -0.2585122585296631 0.2401488721370697 0.0167485810816288 -0.5140998959541321 -0.19081330299377441 -0.6756548285484314 -0.29303476214408875 0.16412308812141418 0.04818758741021156 
— 0.25465208292007446 -0.276333212852478 0.03665037080645561 0.21944719552993774 -0.7596529722213745 -0.046190518885850906 0.3077331781387329 0.1822417825460434 0.3116980195045471 -0.07084041088819504 
类 0.3387521207332611 -0.20379416644573212 0.38912543654441833 0.0025864974595606327 -0.6201463937759399 -0.15348586440086365 -0.3338683247566223 -0.05369115620851517 0.04938666522502899 -0.40909701585769653 
抗 0.016433363780379295 0.47209665179252625 0.06527766585350037 -0.13937492668628693 -0.5203679800033569 0.36323779821395874 -0.43716195225715637 0.29892468452453613 0.24559830129146576 0.09827811270952225 
癌 -0.048275236040353775 -0.22449257969856262 -0.02282063476741314 0.3668750524520874 -0.30049219727516174 0.036421872675418854 -0.684130072593689 -0.05749020352959633 0.49801328778266907 -0.034294161945581436 
防 0.1223750039935112 0.2819909453392029 0.05244975909590721 -0.33459436893463135 -0.2759335935115814 0.13815101981163025 -0.6539006233215332 0.31553173065185547 0.40781480073928833 -0.04600910097360611 
治 0.30361440777778625 0.25372377038002014 0.29797571897506714 -0.311794251203537 -0.29966235160827637 0.23526531457901 -0.5803310871124268 -0.012037313543260098 0.4118126928806305 0.07596968114376068 
新 0.3109787404537201 0.24244379997253418 0.5140250325202942 -0.01696154847741127 -0.6281683444976807 -0.2966863811016083 0.15913018584251404 -0.10484396666288376 0.230579674243927 -0.08890429139137268 
希 0.36177316308021545 0.3660489320755005 0.37818869948387146 0.38636064529418945 -0.26475825905799866 0.3479531407356262 -0.17450042068958282 0.18009990453720093 -0.07929949462413788 0.4271816909313202 
育 0.30634212493896484 -0.10694031417369843 0.6119462251663208 -0.3393723964691162 -0.5151876211166382 -0.002493108157068491 -0.20449185371398926 -0.23368793725967407 0.20775510370731354 0.007269192952662706 
面 0.11854179203510284 0.4467213451862335 0.3026175796985626 -0.3129131495952606 -0.5479250550270081 -0.1637205183506012 -0.32818537950515747 0.2815093994140625 -0.18356430530548096 -0.2218572348356247 
向 0.46468013525009155 0.562644898891449 0.3510657548904419 -0.10922173410654068 -0.5168042778968811 0.024597547948360443 -0.10010113567113876 0.16218048334121704 0.02203282341361046 -0.16681306064128876 
世 0.08150574564933777 0.3283187448978424 0.35644975304603577 -0.049115560948848724 -0.6835598945617676 -0.2772519290447235 0.383479505777359 0.17064373195171356 -0.16103379428386688 0.09931982308626175 
界 0.05454140529036522 0.3862442970275879 0.4418184459209442 -0.13396647572517395 -0.6995641589164734 -0.1942821741104126 0.3087770342826843 0.07724305987358093 -0.03606320545077324 0.07031441479921341 
” 0.037992753088474274 -0.10187339782714844 0.6965646743774414 0.13757963478565216 -0.30296197533607483 -0.3567810654640198 -0.24704065918922424 0.30037033557891846 0.21305665373802185 -0.2613896131515503 
键 0.11252524703741074 0.5501617789268494 0.5912379026412964 -0.18854498863220215 -0.09722539782524109 -0.0963093563914299 -0.4021015465259552 0.041482456028461456 -0.2133762240409851 -0.2681128978729248 
能 0.09694231301546097 0.24851568043231964 0.11871838569641113 0.24809466302394867 -0.4784628450870514 -0.1120571717619896 -0.7289777994155884 -0.09883195161819458 -0.2590630352497101 -0.05851085111498833 
偶 -0.19094713032245636 0.26394975185394287 0.27288803458213806 0.5514889359474182 -0.13429135084152222 -0.13783679902553558 -0.5358266234397888 0.4193284809589386 -0.05978168919682503 -0.10820560157299042 
尔 0.2929685413837433 0.14162172377109528 0.06314260512590408 0.1369199901819229 -0.267278254032135 -0.03383208438754082 -0.2282949984073639 0.512840747833252 0.44294577836990356 0.536163330078125 
乡 0.5237100720405579 -0.13801151514053345 0.23425520956516266 -0.17700077593326569 -0.3720560669898987 0.49529558420181274 -0.0513039194047451 0.1609760820865631 -0.12891055643558502 -0.437686026096344 
拥 0.5377192497253418 0.06605475395917892 0.1009005606174469 0.21720297634601593 -0.5631512403488159 0.23251117765903473 -0.3106071352958679 0.1975519210100174 -0.23942726850509644 -0.29173117876052856 
想 -0.02348923683166504 0.18652069568634033 0.8216473460197449 0.047883290797472 -0.17505747079849243 0.05908588320016861 -0.47971677780151367 0.013573478907346725 -0.06510976701974869 0.136283278465271 
看 0.298908531665802 0.30272436141967773 0.44721758365631104 0.5505222678184509 -0.2211431860923767 0.03015594556927681 -0.16749435663223267 0.24969887733459473 -0.36031705141067505 -0.2142133265733719 
立 0.3636362552642822 0.2622326612472534 0.367044061422348 -0.4001157581806183 -0.5819365978240967 -0.22550012171268463 -0.18362155556678772 0.260598361492157 0.01856401190161705 0.11276163160800934 
即 0.4079732596874237 0.4838868975639343 0.16447673738002777 0.048579294234514236 -0.33663204312324524 -0.39390185475349426 -0.31496313214302063 0.4252470135688782 -0.13989737629890442 -0.04371499642729759 
会 0.6201731562614441 0.43984004855155945 0.5397244691848755 -0.03425586596131325 -0.29330387711524963 -0.15093182027339935 -0.004159655421972275 -0.08379480242729187 0.09944641590118408 0.060942359268665314 
遭 0.07207047194242477 0.5334863066673279 -0.23800323903560638 0.359327495098114 -0.29584285616874695 0.2821601927280426 -0.3495934009552002 0.42783382534980774 0.03354839235544205 -0.2256462424993515 
闪 -0.337258517742157 0.04427482932806015 0.4036802053451538 0.5168750286102295 -0.1494906097650528 -0.07685908675193787 0.18389560282230377 0.4884117841720581 0.22094635665416718 -0.3236404359340668 
开 0.26169535517692566 0.4953634440898895 0.2591681480407715 -0.2663884460926056 -0.5902888774871826 -0.11450886726379395 0.18422774970531464 0.21538938581943512 -0.07642386853694916 -0.3166595995426178 
往 0.2868209779262543 0.6156830787658691 0.14518746733665466 0.2872743308544159 -0.2259226143360138 0.21277588605880737 -0.13574746251106262 0.40410879254341125 -0.15090425312519073 -0.36639338731765747 
排 0.2779303789138794 -0.01703042909502983 0.22061917185783386 -0.4497120976448059 -0.4279213547706604 -0.10219737887382507 -0.2512175738811493 0.6113095283508301 -0.16886769235134125 -0.11253434419631958 
又 0.20401690900325775 0.32172220945358276 0.3025487959384918 0.34884947538375854 -0.4258716404438019 -0.07703833281993866 -0.370010644197464 0.3374656140804291 -0.4138469398021698 -0.1796620488166809 
急 0.22882172465324402 0.5457965135574341 0.1718498319387436 0.1455506682395935 -0.09631442278623581 0.14881159365177155 -0.5485516786575317 0.13731762766838074 0.056808922439813614 -0.4945864677429199 
输 0.2762787640094757 0.049296312034130096 0.06124940142035484 -0.22185871005058289 -0.41725942492485046 -0.27730560302734375 -0.32302430272102356 0.3176363706588745 0.3730136454105377 -0.5223855376243591 
密 0.0853513851761818 0.5008494257926941 0.5102442502975464 -0.22762086987495422 -0.03413764387369156 -0.07395344227552414 -0.4291074872016907 0.20177339017391205 0.38660216331481934 -0.22082334756851196 
点 0.07619323581457138 -0.00252808746881783 0.29819726943969727 0.028438469395041466 -0.6062135696411133 -0.5151354670524597 -0.3180292248725891 0.25827038288116455 -0.2685045003890991 -0.1779256910085678 
钞 0.19349977374076843 0.10110222548246384 -0.14329034090042114 0.26799315214157104 -0.36730480194091797 -0.6835047006607056 -0.18018153309822083 0.19751863181591034 0.0864064171910286 -0.42302146553993225 
票 0.47731322050094604 0.2356995791196823 -0.07956509292125702 0.06436567008495331 -0.3082473576068878 -0.6258251667022705 -0.15892548859119415 0.2964434325695038 -0.0004650805494748056 -0.32608962059020996 
愿 0.43051430583000183 0.3525395393371582 0.31459659337997437 0.4356154203414917 -0.3478256165981293 0.3587295413017273 -0.2568303942680359 -0.13475489616394043 -0.13201089203357697 0.22455339133739471 
旁 0.20469067990779877 0.021937597543001175 0.3424948453903198 0.19299980998039246 0.15674401819705963 0.14436578750610352 -0.2519068121910095 0.6258735060691833 0.09320434182882309 -0.5420303344726562 
见 0.3771149516105652 0.41312894225120544 0.43738946318626404 0.6153284311294556 -0.24227291345596313 -0.057208556681871414 -0.11180225014686584 0.14704135060310364 0.07015325129032135 0.12711770832538605 
目 0.24719221889972687 0.3909943401813507 0.296264111995697 -0.025762034580111504 -0.5517525672912598 -0.5224056243896484 -0.14451299607753754 0.13929519057273865 -0.281796395778656 -0.023418165743350983 
国 0.6757804751396179 0.34804657101631165 0.38436946272850037 -0.1452859342098236 -0.48899224400520325 0.10956417769193649 0.02734111249446869 -0.010768745094537735 0.02872680127620697 0.023023979738354683 
残 0.43850040435791016 -0.17779891192913055 0.17696276307106018 0.16853661835193634 -0.34080374240875244 0.56941157579422 -0.42115262150764465 0.03525010123848915 -0.025575805455446243 -0.3110332489013672 
疾 0.21626929938793182 -0.21441137790679932 0.18691067397594452 0.3374817669391632 -0.24525274336338043 0.49216172099113464 -0.5893771052360535 -0.10307689011096954 0.1677481234073639 -0.26443174481391907 
分 0.3421478867530823 -0.015756316483020782 0.17061668634414673 -0.2689996361732483 -0.4619554877281189 -0.31683349609375 -0.5157065391540527 0.35115674138069153 -0.2681008577346802 0.07929040491580963 
布 0.4524856507778168 0.3235926628112793 0.1493736058473587 0.07243048399686813 -0.21127478778362274 -0.366822212934494 -0.0870572030544281 0.49997374415397644 0.36715587973594666 0.30238077044487 
石 0.044201284646987915 -0.15562960505485535 0.02192174270749092 -0.21222269535064697 -0.6123272180557251 -0.0364874042570591 0.06479355692863464 0.47866207361221313 0.4141143560409546 -0.38369834423065186 
山 0.16361844539642334 -0.08101511001586914 0.2479695975780487 -0.0959753692150116 -0.4495495557785034 0.45393410325050354 0.166484996676445 0.5908530950546265 0.21575066447257996 -0.2538532018661499 
区 0.23973722755908966 0.26709625124931335 0.10438242554664612 -0.41541019082069397 -0.5500342845916748 0.4400688111782074 -0.15752987563610077 0.3172062933444977 0.21049714088439941 -0.14758554100990295 
漠 -0.38482242822647095 0.15005600452423096 0.13499747216701508 -0.1942717283964157 -0.5026957392692566 0.4094422161579132 -0.23445415496826172 0.3421039581298828 0.3279990553855896 -0.2711012661457062 
黄 0.14443339407444 -0.22156140208244324 0.2579720616340637 0.023574963212013245 -0.3672769069671631 0.22527329623699188 0.04173848032951355 0.621836245059967 0.45452871918678284 -0.2868536710739136 
方 0.2780601978302002 0.3856751322746277 0.2743460536003113 -0.34212175011634827 -0.41362398862838745 -0.21947810053825378 -0.4570828974246979 0.39067474007606506 -0.018985070288181305 -0.021371062844991684 
发 0.14001065492630005 0.5171589851379395 0.2894311547279358 -0.044894520193338394 -0.7065271139144897 -0.12209523469209671 0.04681830480694771 -0.21668276190757751 0.1132492944598198 -0.22605518996715546 
比 0.10229898989200592 0.37384849786758423 -0.0002458811504766345 0.052618302404880524 -0.550927460193634 -0.35455089807510376 -0.1826719492673874 0.46139004826545715 -0.2052621841430664 0.3597133457660675 
散 -0.1216292679309845 0.2660486698150635 0.3762374520301819 -0.12890416383743286 -0.3772716224193573 -0.2811853587627411 -0.2544027268886566 0.39099299907684326 0.4476688504219055 -0.3418344259262085 
奶 0.00030441759736277163 -0.6886462569236755 0.15336263179779053 0.2749844491481781 -0.2826592028141022 0.11431541293859482 -0.37628936767578125 0.3575480282306671 0.034701474010944366 -0.25105157494544983 
您 0.3682558834552765 0.04982879012823105 0.4650334417819977 0.7182403206825256 0.010289132595062256 -0.016794899478554726 -0.22263942658901215 0.1791989654302597 -0.20539747178554535 -0.07431577891111374 
搬 0.43747633695602417 0.038787513971328735 0.3457067608833313 0.10557790845632553 -0.011798880062997341 -0.045416101813316345 -0.17663681507110596 0.35874536633491516 0.013356017880141735 -0.7170572280883789 
行 0.38134026527404785 0.5679076313972473 0.3189000189304352 -0.292125940322876 -0.2103637158870697 -0.38750049471855164 -0.24139580130577087 0.2274211049079895 0.11318843066692352 -0.16677004098892212 
便 0.2779054343700409 0.19308336079120636 0.15674270689487457 0.38549870252609253 -0.22735510766506195 -0.010232887230813503 -0.5323861837387085 0.4228428304195404 -0.19616536796092987 -0.3997534215450287 
吗 -0.1580009013414383 -0.22496750950813293 0.634263813495636 0.363393098115921 0.016796516254544258 -0.22439426183700562 -0.39175254106521606 0.06266343593597412 -0.0792047455906868 -0.4192553460597992 
打 0.0708945244550705 0.23274461925029755 0.2814006209373474 -0.03290778398513794 -0.15542012453079224 -0.14426405727863312 -0.38384193181991577 0.7466045022010803 -0.13983368873596191 -0.3020939826965332 
击 -0.23493728041648865 0.5353204011917114 0.04935842379927635 -0.12365316599607468 -0.20300227403640747 -0.08431144803762436 -0.33123013377189636 0.649757981300354 0.14092975854873657 -0.20107682049274445 
之 0.2170247584581375 0.40150249004364014 0.48661696910858154 0.23084935545921326 -0.588534951210022 -0.08058695495128632 -0.1417706459760666 0.3108416497707367 -0.11604493856430054 -0.13620926439762115 
后 0.34719645977020264 0.45916643738746643 0.28615713119506836 0.11370259523391724 -0.4430714547634125 -0.18605145812034607 -0.15584740042686462 0.43778499960899353 -0.3531806766986847 0.04688812419772148 
总 0.5883911848068237 0.10310592502355576 0.11714912205934525 -0.10962368547916412 -0.3796958029270172 -0.21328599750995636 -0.2911730110645294 0.20591379702091217 0.35060203075408936 0.4214971959590912 
体 0.29252779483795166 0.26875483989715576 0.467981219291687 -0.28914740681648254 -0.48704400658607483 -0.23324382305145264 -0.25995901226997375 -0.2065710872411728 0.23296476900577545 -0.28887417912483215 
某 0.6422030329704285 0.050621576607227325 0.4354412853717804 -0.12165795266628265 -0.08172433823347092 0.029081936925649643 -0.25183770060539246 0.43408602476119995 0.012957921251654625 -0.3479331135749817 
留 0.4798680543899536 0.05980336666107178 0.31958532333374023 0.37414970993995667 -0.3944816291332245 0.19528484344482422 -0.35594505071640015 0.2512299120426178 -0.2806239724159241 -0.2484198659658432 
痕 -0.3967795968055725 -0.08827687054872513 0.2336113005876541 0.6832095384597778 -0.2296840250492096 -0.17745566368103027 -0.16764762997627258 0.26948434114456177 0.03381524980068207 -0.3568015992641449 
迹 -0.18454012274742126 0.03582550212740898 0.4896337687969208 0.6315363049507141 -0.30142006278038025 -0.3414382040500641 -0.04322322458028793 0.13422316312789917 0.25736165046691895 -0.18035757541656494 
诊 0.5323117971420288 -0.19482199847698212 0.25603410601615906 -0.041417017579078674 -0.051598891615867615 -0.013549648225307465 -0.7273629307746887 0.1262712925672531 0.18983179330825806 -0.16594073176383972 
淋 -0.35879603028297424 -0.1292729526758194 0.05421854555606842 0.5236865878105164 -0.2517933249473572 0.18957366049289703 -0.3649251461029053 0.3933877646923065 0.419932097196579 -0.11730815470218658 
巴 0.24944736063480377 0.430498868227005 0.08228187263011932 0.0518399141728878 -0.2552589178085327 0.030818460509181023 -0.2010013461112976 0.5902955532073975 0.21755795180797577 0.4906122386455536 
肉 -0.08452728390693665 -0.61345374584198 0.030723977833986282 0.1392766386270523 -0.3708644211292267 0.032506100833415985 -0.4769214987754822 0.20771123468875885 0.22152121365070343 -0.37137702107429504 
瘤 0.0025449683889746666 -0.32216277718544006 0.1952737718820572 0.14367952942848206 -0.29311513900756836 0.03160744905471802 -0.6301764845848083 -0.18124565482139587 0.5568962097167969 -0.10201877355575562 
眼 -0.16391298174858093 0.05027350038290024 0.4607974588871002 0.5144541263580322 -0.28153398633003235 0.2845524251461029 -0.12136626988649368 0.3992398679256439 -0.18917204439640045 -0.351380318403244 
黑 0.03732164949178696 -0.11366161704063416 0.2936403155326843 0.07599595934152603 -0.23693932592868805 0.19456367194652557 -0.014394941739737988 0.7975723147392273 0.3515555262565613 -0.19943088293075562 
赛 -0.03496692329645157 0.3500663638114929 0.28396230936050415 -0.17368647456169128 -0.459183931350708 -0.34796789288520813 0.10101018846035004 0.5279633402824402 -0.23198851943016052 0.30121541023254395 
观 -0.0037486786022782326 0.38474246859550476 0.6641241908073425 0.22167332470417023 -0.503013014793396 -0.19019192457199097 -0.09699366241693497 -0.11573013663291931 0.2064763307571411 -0.08444151282310486 
众 0.40076273679733276 0.32989704608917236 0.44298791885375977 0.23751501739025116 -0.1639614999294281 0.42918023467063904 -0.3402862250804901 -0.1511121392250061 0.20424924790859222 -0.29407328367233276 
助 0.6761029958724976 0.14154216647148132 0.045952208340168 0.043386831879615784 -0.31646814942359924 0.2953369915485382 -0.543622612953186 -0.12846249341964722 -0.06768180429935455 -0.12194868177175522 
威 0.09417573362588882 0.2518094778060913 0.06313667446374893 0.24577489495277405 -0.3373780846595764 -0.023053595796227455 -0.5504506230354309 0.20291174948215485 0.48180779814720154 0.4155336320400238 
紧 0.03873652592301369 0.5884454846382141 0.4115789234638214 -0.2004999965429306 -0.011541694402694702 0.043568093329668045 -0.45674583315849304 0.3206424117088318 0.07870860397815704 -0.35068389773368835 
张 0.46166202425956726 -0.14934691786766052 0.3941713869571686 0.33794212341308594 -0.3793865144252777 -0.13674749433994293 0.04997467249631882 0.4033675193786621 0.4088350236415863 0.0021884460002183914 
极 -0.08074565976858139 0.3259802758693695 0.13422580063343048 -0.16853682696819305 -0.7463506460189819 -0.020223412662744522 -0.476686030626297 -0.17577803134918213 -0.11775047332048416 -0.1065596267580986 
脑 0.5884885191917419 0.1903422623872757 0.3436425030231476 0.1623975783586502 -0.0716152936220169 -0.4917685389518738 -0.02028590627014637 0.23220959305763245 0.30219605565071106 -0.28349193930625916 
乱 -0.08695484697818756 0.19681647419929504 0.03453390672802925 -0.01950918696820736 -0.04804995656013489 -0.11209989339113235 -0.5998314023017883 0.5109471082687378 0.18872401118278503 -0.5298795104026794 
怕 -0.0760129913687706 -0.019743669778108597 0.2650730013847351 0.46190640330314636 -0.08868671953678131 0.20216748118400574 -0.6209596991539001 0.2832994759082794 -0.36078792810440063 -0.2558446526527405 
对 0.4602595269680023 0.5605820417404175 0.3736294209957123 0.04776782542467117 -0.4127368927001953 0.014697074890136719 -0.3795597553253174 0.08012645691633224 0.014728227630257607 0.10371993482112885 
必 0.17046129703521729 0.43455663323402405 0.2789906859397888 -0.08082105964422226 -0.2547037601470947 -0.10573509335517883 -0.7013312578201294 -0.00647763442248106 -0.36018940806388855 -0.006147781852632761 
须 0.222916379570961 0.45056527853012085 0.2759004235267639 -0.12567541003227234 -0.23719632625579834 -0.09004507958889008 -0.6731902360916138 -0.0010442764032632113 -0.3693285584449768 0.037736158818006516 
牺 -0.10203475505113602 -0.08683759719133377 0.10867538303136826 0.5668471455574036 -0.6032235026359558 0.40669235587120056 -0.23082692921161652 -0.2016628384590149 0.13694043457508087 -0.08332616835832596 
牲 -0.013151909224689007 -0.20439568161964417 0.017852414399385452 0.444335401058197 -0.623369038105011 0.4058513939380646 -0.23439113795757294 -0.17216049134731293 0.15194648504257202 -0.3151606321334839 
平 0.06629051268100739 -0.15537911653518677 0.26474902033805847 -0.35388433933258057 -0.7375466823577881 -0.03504801541566849 -0.31623315811157227 0.13975895941257477 0.015606348402798176 0.33339723944664 
衡 -0.07462262362241745 0.010146192274987698 0.020439952611923218 -0.19130900502204895 -0.7230955362319946 -0.10563311725854874 -0.6356306672096252 0.028481533750891685 -0.005825625266879797 0.13570088148117065 
最 0.18411575257778168 0.3739052712917328 0.2612069547176361 0.13365375995635986 -0.8072821497917175 -0.19235101342201233 -0.09546127915382385 0.05344725027680397 -0.19855867326259613 0.010263925418257713 
近 0.549911618232727 0.2326994091272354 0.08940359950065613 0.18173052370548248 -0.6420806050300598 -0.13048537075519562 0.21907778084278107 0.1978873908519745 -0.24257394671440125 -0.16473789513111115 
厂 0.46612459421157837 -0.37005525827407837 0.10400804132223129 -0.24391847848892212 -0.3295953571796417 -0.16039158403873444 -0.22632138431072235 0.2671814560890198 0.17173920571804047 -0.5375992655754089 
备 0.28302446007728577 0.11009268462657928 0.1434655487537384 -0.49540069699287415 -0.4119527041912079 -0.4714356064796448 -0.4451678991317749 0.14136622846126556 0.10921097546815872 -0.14046384394168854 
马 0.2154880166053772 0.1388259381055832 0.31699010729789734 0.10531839728355408 -0.3458172380924225 0.08751174062490463 -0.1407446414232254 0.5260030627250671 0.36264315247535706 0.5171763300895691 
项 0.38250070810317993 0.18218815326690674 0.20145593583583832 -0.31848546862602234 -0.4617714583873749 -0.584835946559906 -0.2444339096546173 0.038519520312547684 -0.22638250887393951 -0.10361789166927338 
再 0.41171252727508545 0.19160597026348114 0.23256729543209076 -0.02209208905696869 -0.41650691628456116 -0.1965985745191574 -0.3358832001686096 0.02683860994875431 -0.49072423577308655 -0.41560474038124084 
吸 0.331728458404541 0.23008733987808228 -0.1471940279006958 0.241642564535141 -0.5117210149765015 0.1329190731048584 -0.4427747428417206 -0.04412299767136574 0.017195474356412888 -0.5283378958702087 
批 0.5100266337394714 0.06521542370319366 0.41052359342575073 -0.2549625337123871 -0.3409154713153839 -0.5384489297866821 -0.2057378888130188 0.11130095273256302 -0.12276700884103775 -0.16169679164886475 
职 0.6653186678886414 -0.173163041472435 0.24165478348731995 -0.20680926740169525 -0.2065679281949997 -0.014190790243446827 -0.46652230620384216 -0.05757048353552818 -0.26484614610671997 -0.3036872446537018 
工 0.5599185228347778 -0.09918497502803802 0.35538432002067566 -0.30031219124794006 -0.38485291600227356 -0.1411127895116806 -0.317842036485672 -0.15934108197689056 -0.1274794489145279 -0.38662564754486084 
少 0.4140925109386444 -0.12947651743888855 -0.07334185391664505 0.31447869539260864 -0.6298023462295532 0.10358374565839767 -0.37632670998573303 -0.005520838312804699 -0.35169750452041626 -0.18644918501377106 
样 0.022859400138258934 -0.026783932000398636 0.6517471671104431 0.34435832500457764 -0.14388765394687653 -0.3154423236846924 -0.3326357305049896 0.15263164043426514 -0.3779744803905487 -0.24163585901260376 
响 -0.0064725917764008045 0.5574450492858887 0.1284807175397873 0.4580671489238739 -0.42019715905189514 -0.059082578867673874 -0.024932920932769775 -0.10962574928998947 0.29061850905418396 -0.43095868825912476 
积 0.050611741840839386 0.195699080824852 -0.08310968428850174 -0.2914762794971466 -0.8154332041740417 -0.08551463484764099 -0.36514559388160706 -0.029528845101594925 -0.22765445709228516 -0.09487250447273254 
性 -0.15298552811145782 0.22988261282444 0.3685813844203949 -0.11242908239364624 -0.542705237865448 -0.17921990156173706 -0.580308735370636 -0.22035808861255646 0.23550467193126678 -0.08848549425601959 
奋 -0.28164786100387573 0.0886802226305008 0.44722384214401245 0.04356307163834572 -0.6423750519752502 0.46973374485969543 -0.21901515126228333 -0.07957485318183899 -0.12776097655296326 0.0835786983370781 
取 0.12822458148002625 0.5001136064529419 0.16170507669448853 0.05242317542433739 -0.40432775020599365 -0.46401339769363403 -0.5341463685035706 0.020193185657262802 -0.19975732266902924 -0.011641995050013065 
重 0.07725976407527924 0.39592444896698 0.40626782178878784 0.004055241122841835 -0.5196857452392578 -0.28445595502853394 -0.5298620462417603 -0.16521842777729034 0.0066168103367090225 -0.114549919962883 
因 0.20289000868797302 0.14599940180778503 0.12300010025501251 0.3511311709880829 -0.3563592731952667 -0.22911357879638672 -0.746917724609375 0.1382523626089096 -0.08514687418937683 0.18805038928985596 
改 0.03971586748957634 0.4459896981716156 0.3610385060310364 -0.4189870059490204 -0.4950401484966278 -0.11043759435415268 -0.282180517911911 -0.07989145070314407 -0.09534754604101181 -0.3758404850959778 
革 -0.0039308820851147175 0.44195106625556946 0.4855981469154358 -0.3995891809463501 -0.5236083269119263 0.008184396661818027 -0.1085047572851181 -0.11145230382680893 -0.10468051582574844 -0.31591320037841797 
展 0.09892115741968155 0.5023511052131653 0.3388023376464844 -0.14233039319515228 -0.6650573015213013 -0.09253404289484024 0.0958000048995018 -0.24632684886455536 0.052939124405384064 -0.28158867359161377 
稳 0.049845267087221146 0.5920149087905884 0.031741321086883545 -0.29252442717552185 -0.6181204915046692 -0.09120822697877884 -0.38728615641593933 -0.01574852131307125 0.09271299093961716 0.10596944391727448 
定 0.2599802613258362 0.5008435845375061 0.16961906850337982 -0.24250471591949463 -0.4219648241996765 -0.39689546823501587 -0.47863444685935974 0.05677055940032005 -0.09673190116882324 0.12936605513095856 
临 0.09531427174806595 0.46013182401657104 0.3136831820011139 -0.18280375003814697 -0.4524601101875305 0.28120800852775574 -0.137160062789917 0.34682223200798035 -0.18120157718658447 -0.4377772808074951 
迫 0.04456239566206932 0.5810722708702087 0.25709375739097595 0.10684669762849808 -0.07019064575433731 0.20153670012950897 -0.6922639012336731 0.10650639981031418 -0.0038826959207654 -0.21615716814994812 
任 0.6878690123558044 0.1362065076828003 0.3851076066493988 0.049589112401008606 -0.1711345613002777 0.003071835497394204 -0.5155746340751648 -0.021494168788194656 0.09601053595542908 0.22961561381816864 
务 0.7243697047233582 0.08203514665365219 0.260014146566391 -0.18849585950374603 -0.1904236078262329 -0.03564757481217384 -0.43329164385795593 -0.14638911187648773 0.2768905460834503 -0.20505905151367188 
寂 -0.3752523958683014 -0.020467186346650124 0.20969267189502716 0.6527890563011169 -0.2768828570842743 0.2842889130115509 -0.2557236850261688 0.3958025276660919 0.05411699041724205 -0.07870779186487198 
寞 -0.32447943091392517 -0.03642582520842552 0.17415505647659302 0.6079689860343933 -0.23352812230587006 0.3571544587612152 -0.41728413105010986 0.3539218604564667 0.005724090617150068 -0.10915976762771606 
寒 -0.302198201417923 0.04416990280151367 0.1806415468454361 0.3892110288143158 -0.32256871461868286 0.43505582213401794 -0.26447293162345886 0.5808610916137695 0.10346312820911407 -0.10599226504564285 
冷 -0.3960649073123932 0.34764382243156433 0.0842447504401207 0.06685911118984222 -0.20494617521762848 -0.12138664722442627 -0.3327297568321228 0.666500985622406 0.2624824345111847 -0.17361314594745636 
风 -0.266584575176239 0.3080269992351532 0.17776387929916382 0.17877911031246185 -0.49848654866218567 0.09098760038614273 -0.2847653329372406 0.23221410810947418 0.5525251030921936 -0.2709682583808899 
险 0.2598317861557007 0.2390109896659851 -0.22129681706428528 -0.040114641189575195 -0.35663723945617676 0.15881982445716858 -0.6481531262397766 0.0305145513266325 0.37905558943748474 -0.3280995190143585 
保 0.41880595684051514 0.2360296994447708 -0.09238938242197037 -0.15066440403461456 -0.47729575634002686 0.16829343140125275 -0.6323239207267761 -0.09166765958070755 0.2421397864818573 -0.12105310708284378 
证 0.533340334892273 0.30586811900138855 0.14837099611759186 0.032487984746694565 -0.2504781484603882 -0.44104504585266113 -0.5424754023551941 -0.12033884972333908 0.18031087517738342 -0.019754432141780853 
足 0.09303884208202362 0.47199568152427673 0.4543737769126892 0.015329217538237572 -0.6310416460037231 -0.1328403204679489 -0.03960918262600899 0.2662787139415741 -0.196405291557312 0.186988964676857 
球 -0.07942885905504227 0.3904893398284912 0.35711249709129333 -0.29045164585113525 -0.6334506273269653 -0.07499291747808456 0.05320568010210991 0.432699978351593 -0.17548629641532898 0.039729900658130646 
运 0.21375371515750885 0.3346998989582062 0.36763668060302734 -0.29002106189727783 -0.549152672290802 -0.1875607669353485 -0.11296061426401138 0.17505685985088348 0.35329094529151917 -0.3435828983783722 
由 0.7210648059844971 0.35732266306877136 0.16927717626094818 0.06254608184099197 -0.5047255158424377 0.007637821603566408 -0.13983899354934692 0.21089085936546326 -0.030015472322702408 0.009073900058865547 
宰 0.2850024700164795 -0.18641650676727295 0.3046489655971527 0.329306960105896 -0.10744258761405945 0.004901154898107052 -0.45568588376045227 0.1809179186820984 0.48257535696029663 -0.444905161857605 
它 0.21351122856140137 0.386270672082901 0.3309151530265808 0.4258110225200653 -0.3717914819717407 -0.047500550746917725 -0.5002718567848206 0.1125287413597107 -0.3311569094657898 -0.03610098361968994 
应 0.4748592674732208 0.45416831970214844 0.20127582550048828 0.12290985137224197 -0.3661538064479828 -0.17503851652145386 -0.5500964522361755 -0.1631775200366974 -0.1323600560426712 -0.03408408910036087 
该 0.7440879344940186 0.2756608724594116 0.276047945022583 -0.001464696368202567 -0.22784700989723206 -0.18535226583480835 -0.3657839298248291 0.12556590139865875 -0.22037996351718903 -0.09868034720420837 
元 0.4823760986328125 0.05690881982445717 -0.3328540623188019 0.2176426500082016 -0.6244992613792419 -0.4109802544116974 -0.1748439520597458 0.12440012395381927 -0.026896169409155846 -0.015529142692685127 
际 0.4173050820827484 0.63925701379776 0.3478119969367981 -0.20766066014766693 -0.40423762798309326 -0.20571590960025787 -0.0797058716416359 -0.05954360589385033 0.18300007283687592 -0.06321505457162857 
金 0.38200533390045166 0.4627251625061035 -0.15145167708396912 -0.21163682639598846 -0.4571061432361603 -0.21257737278938293 -0.2547995448112488 0.11477561295032501 0.45209091901779175 -0.18871143460273743 
融 0.18558812141418457 0.6500115394592285 -0.048334360122680664 -0.20890338718891144 -0.3285093903541565 -0.10043962299823761 -0.25184208154678345 0.07665568590164185 0.4666888415813446 -0.3032485544681549 
市 0.37171342968940735 0.34904804825782776 0.019663365557789803 -0.3711073100566864 -0.5274054408073425 0.15068301558494568 0.05897548049688339 0.3126346170902252 0.24955147504806519 -0.37085166573524475 
场 0.13003671169281006 0.5644494891166687 0.08430535346269608 -0.3099612891674042 -0.5398392081260681 -0.11736726760864258 -0.03533732518553734 0.3000517189502716 0.06314314156770706 -0.40104299783706665 
云 0.22689422965049744 -0.16868914663791656 -0.14576514065265656 0.3068893849849701 -0.6924393177032471 0.15478642284870148 0.23541906476020813 0.4202103316783905 0.2623489797115326 0.019431211054325104 
变 -0.2789812386035919 0.28084927797317505 0.3713759481906891 -0.03001733310520649 -0.6801192760467529 -0.13422900438308716 -0.26361724734306335 -0.11799441277980804 0.036430906504392624 -0.37302613258361816 
幻 -0.42994290590286255 0.002500850008800626 0.5372093319892883 0.5335097312927246 -0.3773777186870575 -0.10610199719667435 0.029437432065606117 0.15304096043109894 0.20326174795627594 -0.15047048032283783 
竞 -0.2480023205280304 0.48237356543540955 0.258232444524765 -0.3027247190475464 -0.6950156092643738 -0.12153253704309464 -0.18576256930828094 0.10817001014947891 -0.02831527590751648 0.05154858157038689 
异 -0.16397786140441895 0.31046411395072937 0.35952362418174744 0.41086453199386597 -0.6506104469299316 -0.07034758478403091 -0.35673001408576965 -0.0758330374956131 -0.07197920233011246 -0.11057013273239136 
烈 -0.29532790184020996 0.6067976355552673 0.3893596827983856 0.35297316312789917 -0.4007582664489746 0.22852018475532532 -0.0893595889210701 -0.025737235322594643 0.19650502502918243 0.091085284948349 
叫 0.24063435196876526 -0.4323556125164032 0.44238346815109253 0.4692986309528351 -0.010289212688803673 0.019277095794677734 -0.2523871064186096 0.512993574142456 -0.10886017233133316 -0.005446988623589277 
儿 0.3186522424221039 -0.520973265171051 0.47532087564468384 0.41065147519111633 -0.34979698061943054 0.1428997665643692 -0.03540702536702156 0.007183050271123648 -0.1479232907295227 -0.25791135430336 
专 0.7275936603546143 -0.09544815868139267 0.43756237626075745 -0.1464814394712448 -0.31148913502693176 -0.2382216453552246 -0.18748097121715546 -0.15834878385066986 0.07936762273311615 -0.16817164421081543 
门 0.6193698644638062 0.24174243211746216 0.19959646463394165 -0.3965595066547394 -0.23942182958126068 0.04869885742664337 -0.37093913555145264 0.3763676881790161 0.0851975530385971 -0.12100407481193542 
栽 -0.13174742460250854 -0.5478934645652771 0.02168293483555317 -0.20154710114002228 -0.5537441372871399 0.004692190792411566 -0.41964107751846313 0.25411078333854675 -0.04441443458199501 -0.30342376232147217 
却 0.10250035673379898 0.24229620397090912 0.26327332854270935 0.5755084156990051 -0.30402106046676636 -0.018447745591402054 -0.4718340337276459 0.21838076412677765 -0.36519506573677063 -0.1838729977607727 
择 0.31996089220046997 -0.010945132002234459 0.48065197467803955 0.058650463819503784 -0.37704411149024963 -0.3846519887447357 -0.47859057784080505 -0.06333602964878082 -0.35554957389831543 0.11594732105731964 
油 0.056909091770648956 -0.0270126573741436 -0.20850767195224762 -0.2308623045682907 -0.6261842846870422 -0.2088475078344345 -0.1539619266986847 0.33735397458076477 0.36087024211883545 -0.44248783588409424 
公 0.6964026093482971 0.06591767817735672 -0.07616633176803589 -0.19918885827064514 -0.2492213100194931 -0.24061697721481323 -0.2855030298233032 0.32711708545684814 0.321116179227829 -0.2314300239086151 
司 0.6966646909713745 0.10574981570243835 -0.05150086060166359 -0.1748575121164322 -0.13264651596546173 -0.21471543610095978 -0.3210848271846771 0.3054666221141815 0.40319618582725525 -0.21812225878238678 
消 0.37447577714920044 0.26062002778053284 -0.18992282450199127 0.30662181973457336 -0.38466334342956543 -0.10835017263889313 -0.5581757426261902 -0.09844803810119629 0.23451144993305206 -0.3546885550022125 
费 0.4901474714279175 0.05563697591423988 -0.20882247388362885 0.205633282661438 -0.395223468542099 -0.18212935328483582 -0.6004784107208252 -0.07821179926395416 0.25088202953338623 -0.22751308977603912 
相 0.2748521864414215 0.6564347743988037 0.20010417699813843 0.25927504897117615 -0.38366401195526123 -0.14074008166790009 -0.4611724019050598 -0.0111936554312706 0.07453519850969315 0.030294157564640045 
互 0.22412270307540894 0.6514052152633667 0.23576855659484863 0.10838329046964645 -0.2070072591304779 -0.03716082498431206 -0.5304334163665771 -0.14733855426311493 0.3153435289859772 -0.10660109668970108 
协 0.6317831873893738 0.42330482602119446 0.40400952100753784 -0.27732905745506287 -0.28416091203689575 -0.20127466320991516 -0.15314671397209167 0.017089810222387314 0.16327296197414398 0.09932318329811096 
商 0.6028958559036255 0.24756982922554016 0.18585295975208282 -0.22401559352874756 -0.2704903781414032 -0.21226662397384644 -0.166046142578125 -0.007970559410750866 0.2522222697734833 -0.5301210284233093 
期 0.4998997151851654 0.4615658223628998 0.15643376111984253 0.02382681332528591 -0.5940141081809998 -0.16706155240535736 -0.09106077998876572 0.18294960260391235 -0.29676538705825806 0.03772730380296707 
基 0.26390597224235535 0.21683594584465027 0.14105375111103058 -0.31994637846946716 -0.5749970078468323 -0.2969740927219391 -0.38448572158813477 0.046670883893966675 0.30637380480766296 0.31366613507270813 
础 0.017044829204678535 0.16900698840618134 0.20037126541137695 -0.3838646709918976 -0.5998087525367737 -0.43624886870384216 -0.41423165798187256 -0.07584358751773834 0.11422982811927795 0.2077818363904953 
建 0.2622273862361908 0.13506944477558136 0.43409666419029236 -0.5314295887947083 -0.6062924265861511 -0.22387605905532837 -0.07900596410036087 0.06731507182121277 0.11513238400220871 0.01990000531077385 
力 -0.045625243335962296 0.29217466711997986 0.14041295647621155 -0.10399701446294785 -0.6992326378822327 0.05257721245288849 -0.5824644565582275 -0.21561254560947418 -0.028137484565377235 -0.06152411177754402 
付 0.5038390159606934 0.28054964542388916 -0.17042765021324158 0.1582302749156952 -0.3429637849330902 -0.2545635402202606 -0.6306275725364685 0.03809260204434395 -0.07232426851987839 -0.16296017169952393 
些 0.3873457908630371 0.21770407259464264 0.5505894422531128 0.13371483981609344 -0.1368625909090042 -0.1859854906797409 -0.37070026993751526 0.12000853568315506 -0.3984776735305786 -0.34294700622558594 
怀 0.2055085301399231 0.142286479473114 0.5748962759971619 0.5490338206291199 -0.1526511013507843 0.45513662695884705 -0.20202025771141052 0.16094186902046204 0.07540570944547653 0.05219953879714012 
绝 0.1768781989812851 0.19331608712673187 0.08200077712535858 0.5393372774124146 -0.20133955776691437 -0.08173935115337372 -0.704252302646637 0.2769585847854614 0.0601222887635231 0.101110078394413 
处 0.4899788796901703 0.1804323047399521 0.289378821849823 -0.05052203685045242 -0.14058338105678558 -0.2213156670331955 -0.6655434370040894 0.32519710063934326 0.06810344755649567 -0.137799471616745 
走 0.22129756212234497 0.4438192844390869 0.3043854534626007 0.08184602856636047 -0.2387809306383133 0.05430400371551514 -0.09424582868814468 0.40298551321029663 -0.1631147414445877 -0.629961371421814 
容 0.10123126953840256 0.38232532143592834 0.22823455929756165 0.09328500926494598 -0.46709197759628296 -0.21287861466407776 -0.6368591785430908 0.13425450026988983 0.2671201229095459 -0.1559719443321228 
易 0.4379522204399109 0.6202089190483093 -0.027341371402144432 -0.03802274540066719 -0.38600480556488037 -0.19504119455814362 -0.18265320360660553 0.018078839406371117 0.28921130299568176 -0.3420123755931854 
局 0.48000481724739075 0.3670143783092499 0.15337111055850983 -0.3973310887813568 -0.3986769914627075 0.009580094367265701 -0.32252174615859985 0.2588731050491333 0.34482017159461975 -0.06730125844478607 
设 0.13517464697360992 0.10405831784009933 0.35356244444847107 -0.5747031569480896 -0.5663068890571594 -0.3469139337539673 -0.22967325150966644 0.014396955259144306 0.14329145848751068 -0.03266911953687668 
权 0.4736148416996002 0.25888633728027344 0.16500987112522125 0.0598529614508152 -0.29230836033821106 -0.07431251555681229 -0.6122518181800842 -0.2711973488330841 0.37152114510536194 -0.02148037776350975 
抓 0.11410073935985565 0.2322114109992981 0.45923978090286255 -0.3580581545829773 -0.1303321123123169 0.0333063006401062 -0.6043270826339722 0.242710679769516 -0.2955435514450073 -0.2537529766559601 
搞 0.2141215205192566 0.1363581120967865 0.4546964466571808 -0.13490982353687286 -0.36497119069099426 -0.08642497658729553 -0.4942205548286438 -0.07683185487985611 -0.21390344202518463 -0.5234729051589966 
靠 0.337069034576416 0.11358293145895004 0.2786075472831726 -0.034679971635341644 -0.3275199830532074 0.12097372114658356 -0.7849374413490295 0.028848987072706223 -0.18421140313148499 -0.14785650372505188 
喇 0.04114437848329544 -0.30696776509284973 0.4481844902038574 0.3534644544124603 0.01045124139636755 0.12791982293128967 -0.01778399385511875 0.6307322382926941 0.10938594490289688 -0.38947924971580505 
叭 0.0303780697286129 -0.17032164335250854 0.39684396982192993 0.37454086542129517 0.009790756739675999 0.0438154861330986 0.1523689329624176 0.6677685379981995 0.12078286707401276 -0.43193337321281433 
青 0.48604223132133484 -0.24990852177143097 0.27606987953186035 0.04712044447660446 -0.6565001010894775 0.2952127456665039 0.23829486966133118 0.11396634578704834 -0.16974115371704102 -0.07839607447385788 
年 0.48067063093185425 0.05039983242750168 0.00394178694114089 0.1061457172036171 -0.6545683741569519 -0.04513059929013252 0.18723148107528687 0.2552873492240906 -0.4734482765197754 -0.016002729535102844 
政 0.5001610517501831 0.4598821997642517 0.21101084351539612 -0.38478705286979675 -0.3033437132835388 0.12329204380512238 -0.4360012710094452 0.09913899004459381 0.11104656010866165 0.16212765872478485 
思 -0.1335856318473816 0.20640453696250916 0.7801656126976013 -0.06982758641242981 -0.16982786357402802 0.08061635494232178 -0.3958618640899658 0.041253529489040375 0.2170894593000412 0.291789174079895 
已 0.4120146632194519 0.4332881271839142 -0.02324560284614563 0.043748874217271805 -0.687717616558075 -0.21004949510097504 -0.16069547832012177 0.12794488668441772 -0.2508792579174042 -0.13357141613960266 
灵 -0.17475587129592896 -0.09100906550884247 0.5542675852775574 0.4041942358016968 -0.3864058554172516 0.17416246235370636 -0.2798261344432831 -0.13176463544368744 0.33487454056739807 -0.3211614191532135 
割 0.24544773995876312 0.08176460862159729 -0.0870770588517189 -0.22291865944862366 -0.19913606345653534 -0.1335388869047165 -0.555392861366272 0.4671279191970825 -0.0566299743950367 -0.537057101726532 
整 0.13823337852954865 0.3626894950866699 0.26174166798591614 -0.43032214045524597 -0.5031278729438782 -0.33178839087486267 -0.4355659484863281 0.17795926332473755 0.022104468196630478 -0.10278636962175369 
选 0.5280906558036804 0.1169118732213974 0.4660746455192566 -0.11906763166189194 -0.3977852761745453 -0.3232714533805847 -0.14773505926132202 0.21962153911590576 -0.22894661128520966 0.3013896048069 
碰 -0.2130367010831833 0.25447171926498413 0.34638741612434387 0.21152442693710327 0.01880369521677494 0.030028771609067917 -0.36019566655158997 0.7436303496360779 -0.14821453392505646 -0.1385018676519394 
几 0.3764418661594391 0.03289204463362694 0.23799197375774384 0.13295382261276245 -0.3964698612689972 -0.13399353623390198 0.019989969208836555 0.4124073088169098 -0.6071321368217468 -0.2620328664779663 
回 0.5126250386238098 0.43654558062553406 0.14091996848583221 0.5151340961456299 -0.20470541715621948 0.18831197917461395 -0.06171766296029091 0.3498062789440155 -0.10760203003883362 -0.21518492698669434 
圆 -0.29491177201271057 0.1472933441400528 0.4172694981098175 0.4320634603500366 -0.41059044003486633 -0.4615701735019684 0.0654790922999382 0.36403700709342957 -0.10029222071170807 -0.045149143785238266 
空 -0.010900720953941345 0.41912898421287537 0.1264009028673172 -0.015310794115066528 -0.30423200130462646 -0.13935306668281555 -0.04635715112090111 0.6294336915016174 0.3807697892189026 -0.3907720446586609 
光 0.016744248569011688 -0.0720626711845398 0.40547946095466614 0.5126497149467468 -0.44609391689300537 -0.1053556427359581 0.24541088938713074 0.33541139960289 0.3890300393104553 -0.18202190101146698 
